solver_type L2R_L2LOSS_SVC
nr_class 10
label 6 9 4 1 2 7 8 3 5 0
nr_feature 3072
bias 1
w
0.0001288311733159748 7.154278609989382e-05 -0.0003118500539286628 7.920146629727202e-05 0.0001069721447529788 0.0002372908430070932 0.0002083941544015235 -5.066266970649174e-05 -0.0002246549726091378 4.513785725521005e-05 
0.0002479988337111602 -0.0001608813780814245 0.0001649070173770217 -0.0001086272476455952 0.0002849819482708416 -0.0002012961778143331 7.101389207138644e-05 8.04358889905744e-05 -0.0002205261437661712 -3.395408821662017e-05 
8.013127701789995e-05 -0.000118178194076123 0.0001437512072862529 8.98705875737145e-05 8.634445271604426e-05 0.0002488537930214407 3.610685610559312e-05 6.488068426182701e-05 -0.0001435031992079484 -0.0003070625034731116 
0.0001068710646851782 -0.0001362224518906652 4.742489496296863e-05 -0.0002167215709442052 -0.0001440833639185268 0.0001811421923562374 0.0001903285224272009 -1.065281942794064e-05 0.0001274566867135965 -7.237589926904761e-05 
2.344251711329872e-05 -3.650102327150057e-05 0.0001281848528108942 0.0002402286081390857 -9.819818064330646e-05 -3.189607701812653e-05 9.823193335216407e-05 -5.72194831056455e-05 6.973744559651139e-05 -0.0002628194288000965 
7.938769940190249e-05 -0.0002771472408852301 -0.0001200321620316729 -0.0001917026610524162 0.0001251744478043313 0.0001472460557774726 3.657925222062895e-05 -1.059453050176281e-05 -2.614027345735705e-05 -1.990224470046555e-05 
-5.189489873846616e-05 -0.0002867053631928209 0.0002023193568765046 1.887699216271774e-05 -6.095896864473349e-05 -0.0002871642227203968 8.161699728215441e-05 -1.968481149699094e-05 0.0003847476191017694 -0.0001208280818679297 
1.123258731231621e-05 -0.0001592251736866923 -0.0002541628808927907 -6.028169521204755e-05 9.986805455588409e-05 -0.0001979161728419266 0.0001683055817335821 5.192595603685868e-05 1.487053251265026e-05 -0.000191864644388323 
0.0002527977052223283 -2.286777761444941e-05 -0.0001953402450784893 -9.231015010106934e-07 -4.799263367176625e-05 -0.0001863677327053927 6.899738588368935e-05 -3.566875011232196e-05 -0.0001942413191025822 0.0001018821574245977 
-5.605328192406835e-05 -0.0004795768793277514 7.964485265804826e-05 0.0002110151615573198 -0.0002971978386856572 0.0001029670520761002 1.549439340336967e-05 1.055975580508156e-05 0.000382877225407097 -0.0001008725750924102 
-7.518870856463417e-05 -0.0001323444627453059 1.155920349363974e-05 0.0001111812641411223 -0.0001607190723787982 -0.0002008593300578791 0.0001433455120252009 4.424476887070588e-05 0.0003203582278969689 -3.361941694633579e-05 
-0.0001104855254476934 -0.0001828170178111259 0.0002343638795998324 4.038586689080767e-05 4.709862469125686e-05 2.909293709478479e-06 8.058870970991719e-05 3.593851506872191e-05 -5.201755590592125e-05 5.560115226639123e-05 
-7.373584865007645e-05 6.412689940157218e-05 0.0001987865091977339 0.0004910865517840046 -0.0002568822566408427 0.0001952877836991231 -3.482173571756173e-05 -4.380294006952952e-05 -2.152335441306895e-05 4.241261019343484e-05 
0.000102691529756033 -1.585090838408818e-05 -9.842060597235098e-05 -9.974300432903198e-05 -0.0001556075722129125 2.226709371062664e-05 2.732215702941066e-05 3.977523053356516e-05 5.339015184024525e-05 0.0001462493422562231 
3.867557209994703e-05 1.631101295143751e-05 9.716676266719269e-05 -0.000180139705392675 -0.0002182844788559293 0.0002877566573126785 5.555092686036519e-05 -3.28914651322341e-06 -8.97113297329944e-05 4.807199821715557e-05 
4.921185532089903e-05 -2.023338196583985e-05 5.24472251712161e-05 -2.952529770540522e-05 0.0003015321472223652 -0.0002250187042559017 0.000112725774369382 4.39758668886471e-06 -0.0003583460244527981 1.042027890530431e-05 
0.0001010677585014948 -0.0001642641926811253 -6.720187614055351e-07 -0.0001889231375718872 -0.0001787296870538172 -4.122371473731327e-05 0.0001545799106538543 2.197307116697746e-05 -0.0002925374221293638 8.366657347290413e-05 
-9.407556954804447e-05 -6.76897626598549e-05 -3.104909702025807e-05 -9.14094516974486e-05 -5.712645175831818e-05 3.26578592199657e-05 6.649448501072944e-05 1.81215449580263e-06 4.546949546393132e-05 0.0001193557171092855 
0.0001040845025706396 3.376015623114378e-05 4.271717539673602e-05 0.0001231451736189044 -0.0004242008726085639 -5.856783272314703e-05 1.184619601925946e-05 6.876955629233651e-05 -3.249940124815487e-05 -0.0001129609014697713 
-5.439984584685006e-05 -0.0003038263121866664 0.0001992599593710177 9.163659277115624e-05 4.215544717712621e-05 0.000269812295618539 2.872745724260219e-05 4.502039908410812e-05 0.0001314344169879295 -0.0003130452444033905 
-0.0001783105497740381 -0.0004023452351413906 0.0001322236032564044 0.0003162618126705933 -0.0001995608491363428 -6.820511200041564e-05 6.711067689721145e-05 8.433616352970067e-05 0.0002304578099806083 -0.0001273940312468676 
-0.0002061705097903684 -0.0001198788124575489 0.0001152311886851832 0.0002784285366470446 -0.0001662595931732953 8.170635455129543e-05 9.10424673818915e-05 -2.025748292327859e-05 0.0005614042009011537 -0.0002070041764983246 
-6.62898571569425e-05 -0.0001395123411934087 -0.0003182222411441147 -4.103809082147691e-05 0.0001005831116902786 0.000264632260963568 4.145568984808359e-05 -2.661645763068454e-06 0.0001595556933505085 0.0001197944014507512 
-5.015851620470792e-06 -0.000461828906578246 -0.0001406957686736113 0.0002980567565601396 -0.0001987547711663295 0.0001400232998270279 4.02307314126583e-05 0.0001152104321908066 -0.0002756974828723814 3.029094962887286e-05 
-2.398350755561518e-05 -8.688877780007672e-05 -2.454825324274823e-05 0.0003125332569877411 8.115007360953261e-05 -8.925365252320089e-05 2.536131915127278e-07 0.0001304109785016644 3.597003692742519e-05 -0.0001523577724783871 
4.239692469761991e-05 2.932932849093909e-05 -7.040270154681005e-05 -0.0002576845894822775 -5.641178302182791e-05 0.0003552459631528307 1.626472274786148e-05 0.0001418942740595565 3.135718854778952e-05 -0.000110079310572673 
0.0001562157226662104 0.000104396088397611 -8.700597749587366e-05 -0.0003173214143935266 -0.0004366858736578714 0.0002369425161015915 -5.812607726125359e-06 0.0001530379817030068 0.0002743000636385995 2.126770897804088e-05 
0.0002037759468046575 -0.0001713817965069661 -4.445709505946173e-05 3.283130986707714e-05 -8.414199665918723e-05 -0.000542855630550106 9.481325343913161e-05 9.009464430680425e-05 0.0003241705000231667 0.0001340463078652033 
-2.421714254948953e-05 -0.0001832852291125906 0.0002910204607365608 0.0001156917138355472 -4.546702723307386e-05 -0.000432706327738449 2.65186496146401e-05 3.332748421533231e-05 0.0001228421719864071 0.0002597290630308057 
-0.0001021394429052497 -0.0003971683806604396 2.016961841608627e-05 0.0001655233586040802 3.077385135487149e-05 0.0002120749167962554 -4.894867698870461e-06 6.970725532095584e-05 3.594939844980529e-05 0.0001250849873590528 
-8.29825493671043e-06 0.000155182994736868 -0.0003369295066994998 -0.000184457165125952 0.0002091024858149058 9.211997860581282e-05 1.81981984444003e-05 5.721070174829508e-05 0.0002047761211462942 7.82388222739616e-05 
8.003087221739517e-08 2.362321655228506e-05 0.000389348733013213 4.254543582616409e-05 2.869123705449612e-05 0.0003025375439634378 0.000320509275574692 -0.0001249558620882284 -0.0002058883559577488 0.0001029328479751483 
9.376693911460196e-05 -0.0001045939433562935 0.0002906905003863559 7.297271845477293e-05 -0.000160934138189662 -0.0001821519115821868 0.0001161336095346096 6.303836328053552e-05 1.35543739150834e-05 7.667427643328508e-05 
6.538375993868024e-05 4.708325795874129e-05 -0.0001863294005659304 -0.0002609191316690454 6.384713307040268e-05 6.119556083459437e-05 -1.620921426284756e-05 9.371199373818339e-05 -0.0001747709980885233 0.0001821238514970956 
-3.307082003389695e-05 -0.0002898572796443635 0.0001140793982237199 -8.314655664811906e-05 5.798384794848613e-05 4.625864707548543e-05 -2.20636402327113e-05 1.688155048722175e-06 0.0001571302651426107 -1.161269822419425e-05 
-0.0001518656989669243 -3.084565665942313e-05 -0.0001622587874831918 -6.104366009314524e-05 2.758275754247408e-05 -3.945166708873134e-06 5.651664459570046e-05 3.648573054500842e-05 8.875867947162891e-05 0.0003034480149518291 
2.08955791775673e-05 -8.918998651518659e-05 -1.520714759375073e-05 0.0001172700483986788 8.916402343167488e-05 -2.91834817497578e-05 -3.368676389707976e-05 -5.407967426549607e-05 -3.193473653065704e-05 0.0002029547749596769 
0.0001470552326227743 0.0003804373496877943 -0.000285225011358604 -0.0004442525982039873 0.0002156742942780274 0.0002884289106809451 -0.000164125720813565 -1.97528484547072e-05 2.933554087269464e-05 1.414281716733977e-05 
0.000130612510750428 0.0002101864356281136 -0.0002858311814547432 0.0002971397695007493 -0.0001040051418791227 -0.0001990099444618145 -4.549126143909839e-05 -5.725329766709219e-05 0.0002399394396568054 3.827907086049094e-05 
-8.304161036589459e-05 -1.656270330898826e-05 -0.0003325183626873374 -3.862735079079739e-05 -6.681855269130576e-05 -0.0001420318488993115 3.390273470298679e-06 0.0001643730703110871 -0.0001730538408558341 0.0001437150923795006 
6.772247081355385e-05 0.0002059566730324685 7.485205199478057e-05 0.0002420919309250317 2.623578932186364e-05 -0.0001747293628649847 -7.603237049225665e-05 -1.623829428767111e-05 -0.0001797413144014949 0.000121835878909219 
-1.653762323468745e-05 0.0001817007871450839 0.0001263691766575481 0.0002563102761829899 7.660611990285126e-05 -0.0001232160330592486 -9.297032888779872e-05 -8.264282314793328e-05 -0.0002948418088923622 -0.0001456982654454282 
0.0001036854018486182 2.290730373642068e-05 -4.01081076268597e-05 8.035384320534376e-05 -0.0001048678262380157 -0.0001642319393522149 4.581046201714957e-05 -9.220323022683922e-05 -5.602451915627996e-05 4.802662669261279e-06 
-0.0001312411483915259 -4.068134514547212e-05 3.073937337598798e-05 -5.083891825336713e-05 0.0001169940407321933 -0.0001736305803143326 5.726568073368045e-05 -6.922806937580876e-05 -3.944727028133619e-05 0.0003119415271121263 
-6.134688111837286e-05 -4.880713286133387e-06 -0.0002977785167875872 0.000286351069506169 -0.0002361420142145565 0.0004057330417571869 -7.232140765930806e-05 -2.826787447425199e-05 0.0002780758190802964 0.000118956923878109 
8.430143012310957e-05 -0.0003076015347157428 -0.0001829737889649576 -6.691150349032555e-05 0.000126460898431005 0.000221058032564312 -2.616726137351632e-05 7.692619157122404e-06 8.761510481997193e-06 9.68259836018318e-05 
6.853718171984247e-05 -0.000468715368291953 -9.787264455250505e-05 -5.206703291134822e-05 6.89029569917223e-05 -0.0001166314984549993 1.435358518450206e-05 1.491420258955649e-05 -0.0001585736224183154 0.0002917014903170144 
0.0001579926573835628 -0.0004121502939366294 -6.859795744414734e-05 0.0003273787508710461 -0.0003046911613965819 4.878655451954138e-06 2.233885393295733e-05 -2.355853092323473e-05 -1.851612790472599e-05 0.0002506915586075288 
0.0001075711009555642 -0.0003136446604680175 -2.213665940168577e-05 0.0003783443737497589 -0.0001653767691135512 -0.0003052877639952669 -8.268482155823113e-06 -6.930615903007612e-06 0.0001632181718934229 8.962632313933431e-05 
-5.417311687399095e-05 7.596469837690857e-05 0.0001005393136999964 8.651897538022082e-05 0.000124600184415296 -0.0001788598608554565 -2.815613439568724e-05 1.674627178622109e-05 -0.000139218336481501 0.0001209862642498875 
2.544510301156995e-05 0.0001225864354549602 0.0001807313563711806 -0.0001042002683636233 -1.285887853485681e-05 -0.000232125607438472 -7.795521653478138e-05 9.460695672313931e-05 -0.0001085736119775709 0.0001329671444964584 
-2.301652131622214e-05 0.0002289058430703029 0.0002179102659599769 -0.0002146113009935111 6.428712312071539e-05 0.0001855190785866868 -5.721680967980044e-05 8.391574539616605e-06 5.211758806566245e-05 -0.0001503460315979326 
8.919311043346417e-05 0.0001869573787004452 -0.0002044116765073138 0.0002514824452732139 9.845663707107213e-05 -0.0001333166558997078 -4.319177396687815e-05 -5.242392307766077e-05 1.553605755326744e-06 -5.722972828163417e-05 
-4.709986204179915e-05 0.00021254837547608 -0.0002083050154550511 0.0004523261636147667 -5.950366342555371e-05 -7.112321009118623e-05 1.996164002658438e-05 -8.437154977757837e-05 0.0001459842112144367 -0.0001233114175995657 
0.0001082416849730505 0.0001694290692061534 4.092222442761617e-05 -3.370923337303223e-05 9.451265418961954e-05 6.914117117957264e-06 -0.0001014665780113185 -4.292119409571649e-05 -0.0001568868981401863 0.0002088696396017959 
9.468302096911586e-05 0.0004886820429831883 -0.0001060874465536178 9.470527344001734e-05 6.906459470173605e-05 -0.0002913521048261456 5.186114027189846e-05 -1.669588824957056e-05 -0.0003067762297270345 -6.107110686596513e-05 
-0.0001920092017873443 0.0003996616518131146 3.064775997382319e-06 -6.542831776094945e-05 0.0001736520903600435 -0.0001596626034725237 6.748408253370683e-05 8.099611886735291e-05 -7.360280582916263e-05 -0.0001821968879413077 
0.0001344039737185579 7.804893977853725e-05 6.270805749210982e-05 -0.0001529916391417673 -0.0002955564424013735 -0.0003085883023184011 -1.30150385753647e-05 8.620922284809492e-05 -3.719328002516445e-05 -7.126680152216264e-05 
0.0001579509222250676 -2.212943608761087e-06 -0.0001156094246060443 0.0002747047454081272 -0.0001930393159184358 -0.0003669788813976609 -6.718283919227412e-05 8.128607135270724e-05 0.0004291638130014299 -0.0002385575858347487 
0.0001076174583947872 0.0001242454130415414 -8.765301055298456e-05 9.443882236942984e-05 -1.626463813045434e-05 -0.0002213311865792399 1.161517345072221e-05 9.996028600437234e-05 0.0004067511723740537 -0.0002882281548191018 
0.0001360018785486441 0.0001703679747328343 -0.000199370362920239 -0.0001091840135828522 0.00015427137069573 -0.0001209330873677107 -1.025124591867155e-05 2.778935188232753e-05 -5.426008686059087e-05 4.51049058339331e-05 
4.60727340724455e-05 -2.778444447828607e-05 -0.0001460229737128999 1.070044813684138e-05 0.0001530626143534397 -1.677778621707932e-05 -6.653272888576314e-05 3.863650617740243e-05 0.0001037349647232805 -4.746071374557747e-06 
-4.767780059679147e-05 0.0001152088597984566 -5.221327157145597e-05 -0.0002761774480092618 0.00018127387819529 -0.0003133932666300763 -5.327655385577787e-05 3.409266143412806e-05 0.0003688722904328551 9.570907897900683e-05 
4.87036740276739e-05 -0.0003672104304049973 0.0001446194913598488 -0.0001020205349339274 -0.0001337308127244075 -7.044898288209535e-05 0.0001809158916443039 2.571014209980358e-05 0.0003773893317268314 0.0003045379797924969 
0.0001535937451839918 -0.0001071546822444714 0.0001183729563797352 -0.0001077399746455336 -4.299903043912382e-05 0.0005344362639660842 0.0001048726260789208 9.878983471350404e-06 -0.0002783460572488082 -0.0002439806628645374 
-3.309823797659306e-05 -0.0002545493738902681 -3.256671880843723e-05 -6.371027064785422e-05 0.0001130653440232376 0.0002597831323898295 -8.765216731351769e-05 8.43326756597412e-05 -0.0001685950509996339 0.0001211334401169683 
-6.126115784385803e-06 -0.0001868377443131177 0.0007112006862515062 -0.0001035361855722529 -0.0001874180234600226 3.458313361298513e-05 -6.370674714057649e-05 -5.319100652560806e-05 0.0002261158251668871 8.364525408247118e-05 
-0.0001839564675662802 -0.0001567824468882509 0.0002635323379721712 0.0002835115334975053 1.15283498097734e-05 0.000182105432794945 -6.591364310590882e-06 -2.53036473910297e-06 -0.000152673706901452 2.312592546197306e-05 
-3.453888708277533e-05 -0.0003603906623107128 0.0002796592063256505 0.0001370630381291918 -3.181169854599084e-05 3.22413649183239e-05 7.438070902363135e-06 -9.269293052287568e-05 1.668928760817587e-05 0.0004264974613667598 
5.736816113335142e-06 -1.714430169294352e-05 0.000165318417409865 -0.000384310067385019 5.211372323313248e-05 9.682078229992979e-05 2.074844923876616e-05 5.152453568318265e-05 0.0001183967571012464 -4.970731859750954e-05 
5.191592382965104e-05 4.663057752151975e-05 -5.5747773692709e-05 0.0001060021208179577 0.0003012163970593999 -9.205054082671107e-05 -8.057384205499468e-06 9.142491761613215e-05 -0.0002989524099091911 -0.0001899440726457416 
0.0001230258066189728 -0.0002534065392753903 -0.0002325330196116585 7.357428311555361e-05 4.435374856860858e-05 0.0001240078995078484 1.164119072987135e-05 8.576492515460864e-05 -5.690089517295867e-05 -0.000205468367268111 
9.541191821582099e-05 0.0001347488917780061 -6.923343566117469e-05 9.400016406907257e-05 -9.856416452539313e-05 -6.691099219239722e-05 -7.846710824308288e-05 -7.09687651778203e-05 0.0002264358583750478 -7.314088069563798e-05 
-2.533905706729909e-05 0.00029757270114541 -9.451433297364539e-06 7.377206994833274e-05 0.0002832778667277834 -0.0002412390942967756 -3.563434924696424e-05 -6.839212035770361e-05 0.0001334116066340665 -0.0002669120791700286 
0.0001674856958378794 0.0004125282221840854 0.0001904183412023249 5.407854102632987e-05 5.51077382436304e-05 -0.0005661373032019478 1.510439004265682e-05 -8.2324165638335e-05 9.280020425130361e-05 -0.0003547513085515512 
-0.0001589889173636934 4.117213626649878e-05 0.0001011538469608235 -1.286483339837553e-06 0.0001710927531385018 5.55311771043516e-05 -1.954153113035931e-05 3.426058619022627e-05 -0.0001086532706963516 4.83395617664833e-05 
-0.0001545113144799842 8.294077708882294e-05 -0.0001328520293622718 0.0001745469704208053 0.0003513921638528727 -0.0001518967004959831 -7.001106828244963e-05 1.220112670894182e-05 0.0001963470930205628 -1.829984500425005e-05 
9.136441377513921e-05 0.0003347488649592933 -0.0001678640235298333 0.00015452462159489 8.362969904464466e-05 0.0001514756329725009 5.444801690490695e-05 -0.0001255006278388541 3.240288644341593e-06 -0.0002837065276306831 
9.870272127421806e-05 -0.0001799470225504734 -0.0001839106248052638 -5.216033554972223e-05 6.209977671580081e-05 0.0001656878845909343 7.474046539360421e-05 -4.275594291694465e-05 8.853065245554926e-05 -0.0001624291472676612 
3.501002283698326e-05 0.0004180328868230425 4.859635290137936e-05 -0.0003725294828009422 -9.872698549783704e-05 0.000230304420070537 8.398674569533087e-06 -1.419300723369968e-05 4.863015969780155e-05 -0.0001507356362844135 
-5.634780490498886e-05 0.0001817381310753682 -2.511375215360198e-05 0.000233474847676541 6.617451341765316e-07 0.0001896092436337038 -5.142033610787149e-06 3.060531516656523e-05 -0.0003692465202954272 -0.0001272852782875775 
-0.0001099630049171831 0.000587549470230464 -0.0002802692662748562 6.069521174540078e-05 9.564071882910999e-05 9.002594253190103e-05 -6.086301663396972e-05 6.969894710711525e-06 2.183813875088927e-05 -0.0001865051930076736 
-2.747676065185347e-05 0.0003308543598458682 -0.0001928166031537782 -0.0001931319170885235 0.000191936380701301 -0.0003375381367377354 -4.461873711548888e-05 5.437171532711581e-05 3.662793065625876e-05 -8.405815489831843e-05 
-0.0003491485592243113 0.0002943648288663093 -6.858790483706236e-05 0.000108175399465061 0.0002132712762254285 -0.0002756040885688259 -1.684022943101827e-05 8.393502459483087e-06 0.0004762004502221144 -0.0002271775373816239 
7.881989746410975e-05 0.0003762400669453043 -1.278981674990225e-05 -2.684861246843179e-05 8.249145234325447e-05 -0.0001559896550800439 -9.301646340085144e-05 -2.410180543686688e-05 8.728765635746333e-05 -0.0001553711839834112 
1.466068351302422e-05 0.0002059787771838891 -2.453307913019905e-05 0.0001731667319883951 -6.00947078191714e-05 -0.0002624164737685694 -8.824675193252717e-05 7.640614860883661e-05 -1.615857683894057e-05 -0.0002596419009502595 
0.0001435392261249302 -0.0002016149745574698 5.628143224630271e-05 -0.0001001944006384101 -7.385639830708383e-05 -0.0001513345853248622 -0.0001099709208287505 -2.692422577495268e-05 0.0003314391616490385 0.0001442249307552862 
0.0002135721379602418 -0.0003573772771564077 -0.0001208224856146521 3.563125780654986e-05 -1.165637370215057e-06 -6.293048897381727e-05 0.0001067845861929156 4.269928168826513e-05 -0.0001412385781286423 -2.228774671343221e-06 
4.020560303124165e-05 -0.0001698568184548952 0.0001800203797205095 -7.249529527693717e-05 0.0001531220915393964 0.0002299062064468043 9.704329078239119e-06 8.00486518130041e-05 -0.0001311802280182098 -0.0001287468899837964 
0.0001571191151277168 4.296588906862385e-05 1.36473247243423e-05 -0.0001021351081623976 -0.0001419318316815288 0.0001275040356801662 -2.479346327414349e-05 -1.137441948032355e-05 -0.0001060722862832863 -0.0001135378777812756 
-0.0001517188382279764 -0.0003414548715512589 -0.0002380230009309861 -5.615247937970957e-07 0.0001249405836788499 0.0002286236042509246 -6.466512623069994e-05 8.869058665047885e-05 0.0001412430804559856 6.548909654922017e-05 
4.478184291022999e-06 -0.0002610231698862337 5.836396161071655e-05 -8.631104894632018e-05 1.109769483433404e-05 -7.302708209431739e-05 1.485917795365889e-05 7.807689666008475e-05 -0.000286477680798745 0.0001924335730800519 
0.0002046669060847982 0.0001499306607005499 0.0002079993723571373 -0.0001494755651263121 -0.000342792417704682 -0.0003032346794440561 -3.202407893721504e-05 -1.348903560952027e-05 -0.0001434299558307447 0.000105088196369371 
0.0001404763176294392 -6.54393802711632e-05 0.0001906415877829963 -0.0001040796278559831 -2.278609493949014e-05 -7.084283647021285e-05 9.156319192018213e-06 2.271195833501134e-05 -0.0001142427889683788 -1.050438763743364e-05 
-0.0001166459796952336 -0.0003185700083848292 0.0004169403117534643 0.0004525303200181498 0.0003440190087939842 -8.441680690649998e-05 -6.021441162675078e-06 -5.602721493874752e-06 -1.233694876320513e-06 -0.0001211402961385708 
-5.221280169258244e-06 -0.0001674110242731824 7.146612789814545e-05 -0.0001715422761117477 4.107564299531806e-05 0.0002686911212115915 0.0001553767586039639 -1.45530138703507e-05 -9.941069046109834e-05 0.0002792214193415151 
-2.462779416988442e-05 0.0001773105908311487 3.49394753251242e-05 -6.286081529067761e-05 0.0004045494867412057 8.432900461775926e-05 0.0001655997672023006 -0.0001408177719930714 -5.804062172199067e-05 -0.0002804050275554651 
-0.000165823818345405 3.188606783796842e-05 -0.0002127137132944279 -4.768079789265885e-05 0.0001014270359369651 2.7290047307237e-05 -1.989001976337695e-06 5.597145729004907e-05 -0.0003351287438461158 0.0002914717338370663 
-0.0002052227546501154 5.813220151604608e-05 0.0003456697799027017 -0.0001361602210203674 -0.0003720230382817021 -0.0002403909869596325 4.222665045531456e-05 2.001628395815902e-05 0.000238129173042661 0.0002332473227439387 
-0.0001159089989308113 6.257134218239833e-06 -0.000425237815892294 0.0002259784880177684 -0.0001964034106980456 -3.356951552310144e-05 6.02360652113522e-05 2.296557708513925e-05 -4.299360632450726e-05 0.0001030372821768757 
-8.674263219946716e-05 -0.0001406482784767214 9.378324001015805e-05 -5.65144148149311e-05 -0.0002613147098192929 0.0002412377343997771 -3.006527225137901e-05 -8.026911647318202e-06 -0.0001089439731450317 0.0002144883541364624 
9.398823681842754e-06 -0.0002078881824151303 0.0001640406914236359 -0.0001666425885565552 -0.000248937581397678 3.113620918943598e-05 -3.169419842264497e-05 -1.797413619945482e-05 0.0001666298094805238 7.203488873843856e-05 
-0.0001104321891193011 -0.0001089312760098903 0.0002189745442680632 2.490705391912276e-05 4.329063723205396e-05 2.844035356891877e-06 -0.0001276393862392864 2.082066437323441e-05 -4.552951847668172e-05 0.0001862493302770608 
-5.590635650146367e-05 -0.0001601592819748618 0.0001772067051331533 9.748426984618272e-05 9.713220121078067e-05 -1.948822444004052e-05 6.028570785879613e-07 4.389843761856474e-05 -7.905277257357747e-05 3.575604275133434e-06 
-0.0001038464618290145 8.487737393200364e-05 3.837039998536525e-05 -2.85424783876713e-05 9.544301983513083e-05 -0.0002954810152848078 -3.736426677030877e-06 6.305144376623242e-05 9.848999816237937e-05 -0.0001018365597071569 
-5.046379212143881e-05 -5.525427215425204e-05 -5.122869395664901e-05 0.0001024038827630069 0.0001286937243692175 -4.591629590513344e-05 -2.483057895320017e-06 0.0001015966060087508 4.525038307879987e-05 -0.0003785616943385472 
0.000185718482865882 0.0001220484666228568 -4.972657515466057e-05 -3.504571807689994e-05 4.724573196076975e-05 0.0001107087033394873 5.08774285401778e-05 -0.0001020084153098186 -0.0002435294701336037 -2.49706603057364e-05 
4.913881824053355e-05 -1.926852083669113e-06 1.543685853734576e-05 6.139146898164495e-06 -1.61545117736694e-06 -0.0003900387700803374 3.666549583042109e-05 5.518250630291913e-05 -0.0002884321768009441 0.0003197141701566517 
-0.0001432337377941884 5.830406233271743e-05 0.0001965858319129864 -0.0004846598494137285 6.33574821684097e-05 -0.0003418389100758546 0.0001021729285950636 0.0001194733430256135 -3.324613065784567e-05 5.737519069753679e-05 
-1.584477270024252e-05 -3.745243253252903e-05 0.0001161091537032109 -0.0004664025816425653 0.0001397473060152555 -8.782368212037629e-05 7.766217786589172e-05 1.648886753504145e-06 3.714813745471804e-05 3.451535868500447e-05 
-6.180418195690997e-07 -0.0004497284406278551 0.0001388216589631033 1.905981008674889e-05 1.233927629811635e-05 -5.171966461377975e-06 1.202205549113647e-06 -3.544655856610201e-05 0.0003699673624440336 -5.399293963631639e-05 
-6.960468300468792e-05 0.0001389915912671375 -0.0002416048232095235 -6.480441229149576e-05 -6.628056572614451e-05 0.0004302277440065297 5.863243226441234e-05 -2.924215336077412e-05 0.0002950587656477558 -0.0001892694280104789 
-0.0001284483410155872 -0.0001193704066402918 0.0001487155181322104 0.0002351983709110332 5.931643336553714e-05 0.0002089544441922611 8.396808590201505e-05 7.414341466895962e-06 -5.272959340329474e-05 -0.0001152862697155985 
-0.000117900940520885 0.0002567383418159853 -0.0001461686478128207 -0.000104231111119182 -0.0001061672984148664 0.0003040714710013805 1.332011147888206e-05 -2.788495755901315e-05 -0.0002181257453066478 4.887123887626842e-05 
-9.406346253839297e-05 -0.0003842059454566065 -2.020275754206729e-05 0.0003202873344510646 7.191557795332328e-05 -0.0002855745306624716 2.583582495548393e-05 4.115056437114865e-07 -0.0001712943840049917 8.771605709976431e-05 
-0.0001207764216196679 -1.814771055698785e-05 -0.0004281382368240697 0.0001466326726540119 9.437161253581967e-05 -0.0003136226908056404 2.695555082631803e-05 1.291192856694502e-05 0.0003287462942256322 -0.000137424343184325 
3.445928249654057e-05 0.0001467387629755933 0.00012495220639355 -0.000238655534351002 8.63399006276815e-06 -0.0001623030825505983 -4.39048437345705e-05 -2.144899191863824e-05 0.0001614799613830844 9.93657742295089e-05 
2.999908550936287e-05 -6.121076208946737e-05 0.0001032773036578267 0.0001410589384645979 -9.525606586920057e-05 -0.0001828420978135796 -6.820657599509123e-05 3.616681166553243e-05 -0.0002060845094195584 0.0002528474938591524 
1.308599820927846e-06 6.798018285028802e-05 -0.0001289933755542557 -5.658553236563208e-05 -4.823169363029635e-05 1.151089502202179e-05 -6.151060427396618e-05 2.994233622961038e-05 -0.0002083528982935666 0.0001015523200733028 
-1.446417532485148e-05 9.23086368823722e-05 -9.33028523305943e-05 -0.000141109230142608 0.000153337542946431 -2.006471449044883e-05 -1.375309520606408e-05 0.0001135332140093757 -0.0001082841098459386 -0.000110319193591879 
-6.91998022702957e-05 3.861954461928872e-05 0.0002014039226417346 -0.0003632676145335303 -0.0001675246379318087 0.000172857611632295 -2.862738866327072e-05 0.0001356170428825688 -0.0001992748097873888 -0.000120004654974039 
-3.117786443515246e-05 0.000309380944593432 -7.266507019229597e-05 8.387856981741084e-05 -9.198951987094262e-05 0.0002188753307264605 -1.208709237961992e-05 -1.990568461059278e-05 -0.0002415354794943462 -0.0003185851199831774 
-0.0001391470100055149 -6.318987964404767e-05 -1.236115618889318e-05 -0.0001443235384233661 -7.861694040761484e-05 0.0002402901019569178 -5.126768461508514e-05 0.0001071621165135722 4.315402271984836e-06 -2.426148257484747e-05 
-9.747894509093749e-05 -0.0001024975878811019 -2.821747159504691e-05 0.0001326645185471586 1.175299718484311e-05 0.0002645987029658965 1.055552098705227e-06 7.651660127958527e-05 -0.0005487100200803236 1.606377074564167e-05 
-4.275751098733555e-05 7.925446469112734e-05 0.0001815911399671609 0.0002528200954028005 -7.132466902655002e-05 -1.662797976577438e-05 -4.606168224385369e-05 -2.830855055638252e-05 -0.0002201538459676082 -0.0002019427998518371 
-4.242078910716865e-06 8.134456320450585e-06 -3.614345875654162e-05 -0.0001955175809892296 5.535186268967655e-07 -0.000221149876609991 0.0001052542435951013 1.273261270558818e-05 -3.206993346617074e-05 -0.0001282087504661719 
-0.0001354232315821016 -0.0002231028205863641 0.0001731055189679287 0.0003957365525122965 0.0001475466413383319 -0.0002603646720293118 2.838794040386953e-05 5.233239002548248e-05 -0.0001911863112900743 1.973483902339957e-05 
-4.806567995312516e-05 -0.0001096078079878904 0.0001022985870864001 -0.0001764204783394973 -2.386432863010457e-05 -0.0001783689459578717 0.0001374484311236733 6.458993055229874e-05 -0.0002621464176307483 0.0002757968716336123 
9.953356180626795e-05 0.0001573087937030726 -0.0001504247314079 -0.0004724666409518873 0.0001659625122013122 -6.967612475641171e-06 0.0001718881140808157 -2.091308762957779e-05 0.0002565794211209915 -0.0002085069725815364 
7.983745353848537e-05 8.80695734334133e-05 0.00035576840862447 3.798440566780967e-05 4.311369783008227e-06 -0.0003231039094354345 1.852406264457097e-05 -2.716565140455897e-06 -0.0002078604578733787 4.951876467603678e-07 
-6.770769899800135e-05 -2.683576656955872e-05 0.0001193223206333901 4.254523503140746e-05 8.097516357049976e-05 0.0001961807899454668 3.383951316986947e-05 -7.397655257772876e-05 -5.767330811633205e-05 0.0001663640514956329 
3.759345986715873e-05 6.18046294361846e-05 1.379327076039325e-05 0.0001135461149672778 1.471741117926524e-05 -5.932569449623701e-05 -9.591449294929265e-05 -5.120537041076556e-05 0.0003540634513836573 -0.0001963049696691744 
-8.764821136588344e-06 0.0003582401558652383 -0.0002455642103170102 -0.0001231018845681673 -2.490517548013851e-05 -0.0001261268607519837 -0.0002012779115489875 1.437897916415186e-05 0.0001213661657171106 9.964593091925261e-05 
-0.0001259836302606354 -9.628802239909665e-05 0.0004031081381528647 -0.000154541442253288 8.263473944300407e-05 -7.239315298488955e-05 -0.0001321990788043761 -1.446605512818472e-05 0.0001213659334869134 8.750672189063657e-05 
4.90908895713983e-05 -0.0002192772271474944 -0.0002186938463341251 0.0001260597078232505 0.0003158956274807806 0.0003166651090724046 -0.0001036358203251088 -1.103206413946564e-05 -0.0001154914211754634 -0.0002251400148166985 
0.0001518794688453944 0.0001219770525564797 -0.0004054028504290105 0.0001491711159053476 -7.236724513967923e-05 0.0001830516228335561 -7.303925947085812e-05 4.678390183729957e-06 2.526542473984561e-05 -0.0002026550108826637 
8.738056468001181e-05 -0.0002360966095114238 -5.71394643689024e-05 0.0001295856335502953 -3.808375628651279e-05 0.000144482435657765 -0.0001289755859893225 7.820482576478329e-05 2.203581639616138e-05 -7.960313972721186e-05 
-0.0001301966718639359 -9.339362490005959e-05 0.0001516111185140126 0.000166126491278628 -2.980938576236683e-05 -0.0002735126028707818 -9.158389812853496e-05 0.0001757086975181094 0.0003048344364990748 -0.0002924749988467823 
1.810309027237275e-05 -9.709527549016664e-05 -0.0001555217333463716 9.40974221056803e-05 0.000118172455328083 -1.439221491195602e-05 -1.099746088108247e-05 -2.775903166266471e-05 0.0001063889676127033 -3.915372997273327e-05 
4.333960486463709e-05 0.0005631799003943019 -4.563191346794079e-06 -7.894431935383174e-06 0.0001267264128551055 -0.0002357771993654996 -0.0001182548444719711 -0.0001211994050130968 -7.737705832873041e-05 0.0002905063779512439 
-3.317737124057306e-05 0.0004165593722804056 0.0001758511221823022 -0.0002650895084599649 -0.0002629394724582186 -0.0003755294402079997 -6.470951133756685e-05 4.995358896766789e-06 0.0004891828640524896 4.359528290996426e-05 
0.0001319813649939768 -4.731435605829799e-06 -0.0001970367982433564 -8.028862651576241e-05 -1.318115494526736e-05 -0.0004178131580212599 3.720905162579649e-05 3.119829985867015e-05 0.0001160397010214944 0.0001343639032556077 
-5.427559008102584e-05 7.089519660698516e-05 0.0001201219680240475 -1.179017096027445e-05 -7.651049261004848e-05 -7.936792173514692e-05 -6.493780699197278e-05 7.391689739989856e-05 -6.607680132512954e-05 -6.272870077824867e-06 
-0.0001284781267912948 0.0004094165316840108 9.039032303046191e-05 -8.105783417687018e-05 -0.0001135314598923467 0.0002288147996317889 -4.890034825107686e-05 5.345747571107736e-05 0.0001988453311573127 -0.0002242145453683211 
-0.000135389831742791 -0.0001125987346339149 0.0002800478846864751 -0.0002178560170758578 2.092851198356274e-05 0.0005849178891112974 3.852450918630932e-05 4.553803564515157e-05 3.547439221330293e-05 -0.0002013368739015048 
-1.851261240854417e-05 0.0001255505985319432 -0.0002023761862793897 0.0001141236559351399 -4.63208085569455e-05 0.0003353262287409521 7.827473847510113e-05 -4.828788508080845e-06 -0.0002377756970400466 -0.0001351983131292308 
5.460487674268277e-05 -9.383092111606339e-05 0.0002113467782752215 -0.0002499571741883088 2.219105054536382e-05 -0.0001983423380493551 -5.463045990270731e-06 8.21202660746767e-05 8.132893588009588e-05 -0.0002089273822427851 
0.0001148784799253901 5.268794763623825e-05 -0.0003358377031732585 7.661314797442828e-05 -0.0001498568083386533 -0.0001179776765432722 -0.0001305501554708531 2.736696510076562e-05 0.0002066295517577664 0.0002981232666087152 
0.0001195021435153569 0.0001470026053787161 9.026410460099806e-06 8.568208691534223e-05 0.0001219946536085793 6.812170502613969e-05 -1.627109591498904e-05 -0.0001160281547307994 0.0002033823040992121 0.0002557239580381408 
0.000195369618968509 -2.557874352075236e-05 -8.235211952981813e-06 -7.142358917970665e-07 -4.081445976843651e-05 -0.000307427326634921 6.546790282898009e-05 -1.82238314906832e-05 -3.261155934675625e-05 0.0001087286797651611 
-9.40064635124613e-05 -0.0001376470663152861 0.0003606455800423459 0.0001161091874948008 -5.701502353543782e-05 -0.0005080185591279798 1.855380905052804e-05 4.330999466359799e-06 6.242088639924035e-05 0.000338418381863609 
-3.479122006834786e-05 -0.0002855967936762522 -0.0001285934961261317 4.59249450127142e-05 2.913248406378972e-05 -0.0001367396349529347 5.738860022010225e-05 1.452281439689856e-05 0.0001444561264746295 6.747967680004978e-05 
-6.974142312746299e-05 -0.0001333104279126456 -3.844304645772205e-05 -7.711959444064707e-05 -2.620437878277353e-05 -0.0001068344820228568 -1.495568273155072e-05 1.628019082601061e-05 0.0001199394124386021 0.0001237448318070723 
-0.0001277068127002272 3.594498546063782e-05 -0.0001121469785515686 -0.0001523276703770719 -5.070408823251679e-05 -4.62930434521373e-05 1.718621706439986e-05 -6.788673775216518e-06 0.000483133680667845 3.190757697362963e-05 
-7.632213706378265e-05 3.946894242412074e-05 0.0001190671983086437 -7.219373135158016e-05 -8.267139380506234e-05 0.0001982635619945411 -5.574207216981665e-05 0.0001183043688642105 -0.0001763560583670531 0.0002008130399064353 
8.217410315941192e-05 -0.0001808202089235064 7.405581352488804e-07 0.0001442159663049785 0.0001569727405933713 0.0001288280857030773 1.460583182554916e-05 1.990269372085901e-05 -0.0003299564031800934 0.0002306805965880238 
-0.0001415573612491273 0.0001953251398611248 5.454322369274642e-05 0.0003469436665374838 5.443192276240314e-05 -0.0003136482714869115 -2.126533397938195e-06 1.099732155435969e-05 0.0001553981703689783 -0.0001912825054199008 
-1.007922665264177e-05 0.0002315417944286828 0.0001088440824291353 0.0001376881643365051 -0.0001264695710298902 -6.703097866719484e-05 1.655932256962827e-05 -2.536695527417185e-05 6.002911144687698e-05 -6.347206166950401e-05 
0.0001051114427889715 -0.0002555664319390221 1.307086083656931e-07 0.0001674932692053592 3.908211918187174e-05 -1.820023847951027e-05 -3.212408342029998e-05 -5.809914352209722e-05 0.000240652758063193 -7.055659359780995e-05 
4.328475185509779e-05 0.0002766515755420252 -9.475058346577301e-05 -0.0001711432740405783 9.542828767223336e-05 0.0001876967168596727 7.833585006292102e-05 -5.547967107162001e-05 5.873623364012035e-05 -0.0002455635564646291 
0.0001168266640608315 0.0002536094276595642 -0.0002005029433789431 -0.0002321883214539001 -0.0002791208747183809 0.0002094448039695755 0.0001310971019301949 2.95966709808446e-05 -0.0002705915236242471 8.405682080298435e-05 
1.784230657284268e-05 -2.869373785008156e-05 0.0001807922412628389 0.0004505397786955472 3.742559674117236e-05 -0.0002760040581824591 0.0001001940292714384 -1.359569142625775e-07 -0.0003790642123799727 -9.066033698988073e-05 
0.0001168272552366057 0.0001150684493415117 0.0004039152906208533 5.758089600380862e-05 0.0001273662703684882 -0.0002014353211945102 3.96911197199585e-05 -8.779185185299129e-05 -0.0004888270638170688 -2.549667237967323e-05 
-0.0001820621997435724 3.357981357353172e-05 0.0004387703549559931 -2.644615488315117e-05 4.592252023571615e-05 -0.0002601670160955187 -9.697168209000757e-05 -7.333904099716202e-05 0.0003220999571531552 8.109687927996871e-05 
-0.0002394550208214353 0.0001011604896198878 -0.0001770141300396262 0.0002498405226286172 0.0002474613872639392 7.156087659296991e-06 -0.000104501299292983 -1.638418248831718e-05 6.717325296989246e-05 2.682648244103405e-06 
0.0001063961773774618 -0.0001075087460748727 0.0002083459508008164 0.0001477962485991499 -0.0001778027372891359 0.0001131382086462752 1.96497592556555e-05 -4.574748000987588e-05 -0.0001540178236577721 6.678970130872613e-05 
7.168580568106749e-05 -0.0003451182332022429 0.0001816976164566255 -6.609805116622974e-05 0.0002666969302130087 -0.0001527191684889 -3.712817045218516e-05 2.577691666319215e-05 -2.335132119239829e-06 -1.542676150820632e-05 
3.367266683287683e-05 0.0002046140822347558 0.0001089728134379401 -2.27132444122422e-06 0.0002158916789135363 1.621109590131985e-05 -5.23291060168777e-05 -1.47832851860168e-05 -0.0002544688247693121 -0.0002184922109793909 
-7.327409292882939e-05 -0.0002265376335801157 7.079335680491271e-05 0.0002155455329659665 3.089488365783148e-06 0.0005424724120066429 -4.294172010412613e-05 -1.186150230728106e-05 -0.0002477373889588209 -0.0002702364366196523 
-5.809750229471604e-05 -0.0001141830560298529 -0.0001876487554474263 5.542220518734843e-05 -0.0001247817160389179 0.0002471225843416115 -5.688555056492681e-06 9.183281164004149e-06 0.0001446637250396782 -7.969933880290141e-06 
4.439022840943013e-05 4.488831914094099e-05 -0.0004055666290028402 2.650793865014757e-05 1.518772973087556e-05 -0.0001065995543964308 -4.71456248372544e-05 2.606421932087313e-05 0.0005541675335232934 -0.0001183611318280343 
-9.678552354980432e-05 0.0004511991268959109 0.0001723071311816883 -0.0002114132382552312 -8.331458439947653e-05 0.0002036313288419874 -0.0001118632058016957 -1.494487378251088e-05 -0.0002149110442800099 0.0002703174170631409 
0.0001094264498460438 -0.0005002355685411266 7.814943952579479e-05 0.000362383771090925 -1.846475086115894e-05 -0.0001473687125373917 -5.872460900110893e-05 8.453511676220773e-05 -7.055066565800068e-05 0.0001680635852628975 
0.0001678853733823803 -0.0001669330799511478 -1.663063784629182e-05 0.0001650008622123119 -0.0001098973214762864 -0.0003649988263241275 -5.690049964621964e-05 3.86398163060916e-05 4.450074106583165e-05 0.0002196754685257696 
-0.0001093456560445673 6.142551604326289e-05 -3.213984161305891e-06 -8.020872355703838e-05 -0.0002186741551448209 0.0003212355306921702 -7.47207588792074e-05 4.824192203109116e-05 0.000242376892093366 2.723652782134005e-05 
-0.0001141708432291087 0.0001708090521161499 8.863125687887017e-05 0.0002548857463707625 -0.0001101852011458182 -0.0004027667910914655 -9.63562615661889e-05 9.219898386653281e-05 0.000254133616459188 -0.0001571286366778219 
-0.0001907354859594551 -4.039392102427541e-05 9.947810404754067e-05 1.40031844177308e-05 -4.887784687492782e-05 8.971181086156399e-05 -3.759464891617224e-05 6.706210288713936e-05 0.0001406267484554461 -0.0001487649570515132 
6.33554847059296e-05 -8.128530474854056e-05 0.0003884820473622663 2.875454816224416e-05 -4.848126320925142e-05 -4.924404174357691e-05 2.644957808104123e-05 2.736022947943174e-05 -0.000260406343901217 -0.000205361757702496 
0.0001481958383183072 -0.0002372433660808814 -0.000168962331177141 -0.0001710881053125768 -2.133403100753844e-05 -2.133371193273035e-05 7.879961628229133e-05 0.0001014909415856329 -3.386508909974746e-05 2.391878420900356e-05 
0.0001257138536410784 -0.0002545028116219548 -0.0001503833592046887 0.000175145866620713 0.0002228582845749434 -0.0002183665894310381 6.644139515165308e-06 2.25195621720063e-05 4.215944586737639e-05 -1.517839542306023e-05 
8.340953952726268e-05 -0.0001768976852574385 0.0003145923570561834 0.0005049447792216719 -0.0001102386011560439 1.943226492493168e-08 -9.814810707567615e-05 -3.336076298114799e-05 -8.894267571939114e-05 0.0002419463114343854 
0.0001850602172623766 -5.330008213441989e-05 -0.0003677819898466128 0.0001865634529385165 -7.957871633287056e-05 -0.0002103170687448703 -5.923076173402503e-05 -1.342465678321465e-05 6.388298929577323e-05 0.0001120340983682108 
3.931011764002501e-05 0.0002897339575278745 5.142924523400247e-05 -0.0001879575224759459 5.837996507671416e-05 -0.000217336074041994 -0.0001529908875993273 9.172182802457012e-05 -0.0002775423768101326 0.0001722097752920132 
-4.876612165100744e-05 -0.0001437393738508163 0.0001035940433060046 -0.0001904329265688346 -5.650918288673142e-05 0.0001907887424630496 4.994557230258701e-05 0.0001132681541957389 2.212195400195487e-05 1.04004401764931e-05 
3.030801375708992e-05 -0.0002619493663005731 0.0001763456119012859 -2.855848829388642e-05 -0.0002165863931043285 0.0002119959040098836 2.42599451941341e-05 7.010339079339121e-05 -0.0001193645599444914 -0.0002086721185350841 
1.565560926964457e-05 -0.0004581339740759618 -0.0001910057552375927 -0.0002825340332864675 -9.387444910248723e-05 -7.241637400241822e-05 4.761142863684944e-05 6.416458284714265e-05 0.0003309205832606181 0.0001060638383088407 
-2.520441897681716e-05 -0.0004414247596838214 -5.401437046700727e-05 -0.0001901229299856515 6.456148272171126e-05 0.0001424157372152021 -4.727924923184781e-08 9.242076449415341e-05 0.0002197956263955843 0.0002831017448202156 
-0.0001021139284108904 1.4363286223828e-05 -0.0001261106036589415 6.909587011435527e-05 0.000333911562362606 0.0002385365897029256 8.159531526923796e-05 -3.286767183925236e-06 -2.620883005591855e-05 -7.365112386601313e-05 
-9.372163495229515e-05 -0.000223511795345616 0.0001033490737351076 -1.998462753729706e-05 0.0001046785416561324 -8.855721529927243e-05 4.451817384824192e-05 3.09865000562055e-05 -0.0002236765385011723 9.754860633049576e-05 
-7.442232783076152e-05 3.699790832788533e-06 2.283293941347261e-05 3.611690077340319e-07 -2.334815910209191e-05 0.0001521943120150041 -4.753972370543774e-05 1.388924043218274e-05 -4.106326434851281e-05 4.987683213916122e-05 
3.02022976014702e-05 -0.0002185485916461427 2.514416379910652e-05 3.281214414247429e-05 7.516882361807213e-06 0.000263466573069752 -1.319803679672859e-05 -0.0001219615789813472 0.0001848789699935817 8.914707910039795e-05 
2.358601474704132e-05 -2.916974519866783e-05 0.0001346556875172302 -3.927977809181154e-05 0.0001133622978924173 -0.0002057404071831029 7.775678443282728e-05 -7.29407109451791e-05 0.0001481500491879813 1.611593363606343e-05 
3.51053392038255e-05 -0.0003660097592799986 -0.0002475883256405265 0.0003104138727510243 0.0002824008302807022 -0.0003037770315934224 9.319058467936691e-05 3.787490387650905e-05 -1.741604181979264e-05 5.010388677993545e-05 
4.794186834106429e-05 -3.4385262899301e-06 -7.950995244881562e-05 -0.0001552218964593984 -0.0001984849051398415 -0.0003441647542856898 7.494576894318516e-05 4.351276836807975e-05 0.0003519634430130344 9.477259620148349e-05 
6.210141400211644e-05 0.0003876368108021294 -0.0001412256232188472 0.0003502529597797928 -0.0001557696670425548 -0.0002141940066039964 3.209645522699375e-05 -1.343946427971589e-05 5.205017317992261e-05 -0.0004041458560980609 
-0.0002098447641525232 -0.0001206954064417006 -4.688204397276051e-05 0.000226961594293571 -8.35657829414008e-05 0.0003069319475775626 -7.43512982700243e-05 5.111750255679652e-05 7.58996004961075e-05 -0.0001041441830039281 
-0.0001286070846460171 -6.658528149407466e-05 -2.815271144718797e-05 8.408403290133213e-05 -7.219003408571381e-05 0.0003114896867291966 -6.292467545235121e-05 1.431434366570645e-05 -8.968750844417122e-05 8.092012698975296e-06 
0.0001083362568348867 0.0003873083767623199 0.0001262309051230907 -0.0002187547331011001 9.260381593086917e-05 -0.0001336843529214109 2.102707493328868e-05 -6.222729338714045e-05 -0.0002554622523762017 3.861586000489228e-05 
9.332075462385104e-05 0.0001969781223980358 0.0002850919071513364 -0.0004275144310936708 -0.0001075925147122095 4.696687024672684e-05 -5.717259377922359e-05 3.394935857976825e-06 -1.631253813362586e-05 0.0001483942442340961 
0.0001193200023904408 0.0001757327920778642 -0.0004007355380939245 -4.601330105357897e-05 -0.0002296445278717525 0.0004030808452706252 -5.206373198051309e-06 5.338521503707555e-06 7.491328001524818e-05 -4.498956763537904e-05 
-1.489100390203294e-05 -6.625583082798193e-05 0.0001802710358283141 -4.54895043177573e-06 -0.0001205809572134977 8.935727281207745e-05 4.925789140729794e-05 -1.334677511870242e-05 5.122470271360316e-05 -0.0002501716930308614 
-2.498033793165618e-05 0.0001592384911976546 0.0001579455292681902 -9.701146891391612e-05 -0.0002237123548012677 5.590414708180556e-06 2.452960426665905e-08 -5.630601846665708e-06 0.0001859784270446103 9.735977799285874e-05 
-0.0001387140006663191 0.0001163037552345687 0.0001411634879921623 0.0002254593312414666 3.191513148900646e-05 -0.000217760852829655 -0.0001558965229472457 -8.609369208230827e-06 5.940649636199135e-05 0.00015860270271879 
5.468183076255956e-05 0.0001608834397853679 -0.0002055149063074998 6.669048798432672e-05 9.450312512444414e-05 -0.0003978809222441013 -0.0001439717875460849 4.988596952784945e-05 0.0001185552796211858 0.000264853169565947 
3.262338620683441e-05 -5.631566367253001e-05 -0.0002033847400626447 8.175384974689237e-05 -1.940130624556874e-05 0.0001183635594813313 -0.0001358122349050163 0.0001664825839750915 4.410463119771607e-05 0.0001191893853490034 
-0.0001778199128456396 0.0001472125585758593 9.558306201975481e-05 -0.0002883979219460971 0.0005338229246053882 -6.836492220862271e-05 -0.0001604373738453278 0.0001025683309390038 -9.000314007771904e-05 -0.0001115171883580362 
-0.0001350590955704694 0.000106449765505373 -0.0001665072631510459 -0.0001118831065108685 0.0003629047053918332 4.647382427897721e-05 -6.141131196264543e-05 2.632312772192443e-05 7.597283198814809e-05 -5.20534706007034e-05 
0.0002038997176806123 0.0002561597970823529 -9.448721078344982e-05 -0.000197656621593025 -0.0003132476984740383 5.128747123664057e-05 -3.369278931916907e-07 2.454813665694318e-05 4.896270976470126e-06 -0.0001840164491789598 
8.379466440990787e-06 0.0002305479731622609 -0.0003185113872730672 -0.0003790245859121374 0.0002534777828703793 4.750304943894156e-05 -6.550310365795491e-05 2.190505746259608e-05 0.0001791510079303776 -0.0001042575194834802 
-5.170259102838618e-05 8.712708631142565e-05 0.0002669933530812862 0.0002301776716425085 0.0001991779021385522 -0.0003045136201101874 -0.0001389679482462076 -1.072709411005713e-06 0.000113736542846324 -0.0001233410854522115 
7.614077803749001e-06 0.0003809952002485301 -7.254117497166377e-05 -0.0003877295544763898 0.000172992649711488 5.272785640951161e-05 1.989629309241641e-05 -2.589845254536678e-05 -5.998952164656238e-05 6.784526092451169e-05 
0.0001762944965301705 9.780425059133963e-05 5.678503656649105e-05 -0.000231537581612523 7.61565177431559e-05 -5.703472560835752e-05 5.746690821050693e-05 -0.0001479486250600326 0.0002527830169730589 -0.0001202169365447468 
0.0002208639003495235 0.0001242405215872769 -0.0001223476479500063 -0.0002041168540105268 -0.0001747066739148096 5.234476981728069e-05 -0.0001467768399618123 -4.860861609846379e-06 0.000104002744651544 0.0001486679483136404 
0.0001003951620745374 -0.0001516736904954499 1.680275251721902e-05 -6.930551167379345e-05 0.0001869922091318501 -0.0001298605578363206 -6.883090275671619e-06 6.011976566427789e-05 -0.0002274463944856486 -5.777574934240495e-05 
-0.0001655188010560103 4.506972599695742e-05 -3.229531212624495e-05 0.00022330526617094 0.0001095685782322943 6.791899959613908e-05 -2.357737513688e-05 9.725577273864536e-05 -9.838359575766299e-05 3.478095799838622e-05 
-7.337341875746108e-05 0.0001884142812822036 -0.0002143783479172867 -2.621765371333951e-05 4.666634329805725e-05 0.000246462138709095 2.479823393451971e-05 7.70341672471036e-05 -1.502065569905137e-06 -0.0001414956227714184 
-0.0001166829989170864 0.0001641180596683219 0.0002646978211297406 0.0002338910057067033 -0.0001995019627639544 -5.080739539286837e-06 -2.178969371532787e-05 0.0001089668617528747 -0.0001113090632230667 -0.0003817358364321861 
-6.019255539751764e-05 0.0004246911086603077 9.934208894005701e-05 1.156990474326482e-05 -0.0001552923151774508 -2.024088331525293e-05 -9.970703782630055e-05 -1.858404459958151e-05 -2.737882689426712e-05 0.0001463077123663238 
-0.0002023850674249801 -0.0002738445607042063 0.0003373283469214387 0.000212443456785317 1.100122207854039e-06 0.0002742061746201527 -2.006301534312978e-05 -3.910615821921748e-05 6.148635208307438e-05 2.096798157793135e-05 
-0.0002129111896797377 0.0002101137786206226 -9.094574790500537e-05 8.076872981660915e-05 5.43531916061813e-05 0.0003507107942382455 4.71468729733087e-05 1.440031325952172e-05 -0.0002227780484168299 -5.751019446224312e-05 
7.672667588008555e-05 -9.708321452260808e-05 6.871641531521522e-06 -0.0001218433991845961 9.190955900150999e-05 0.0003833248627410437 -6.277742640058719e-05 2.935574542226069e-05 -0.0001026215696957102 -0.0001276407093560006 
-5.331835794700775e-05 -0.0001728326969811254 4.27024962459578e-05 0.0001397447270402896 0.0001633291454405717 0.000232681594417081 -8.681822941405684e-05 4.574845381748152e-05 -1.331788588533699e-06 -0.0001815129257690454 
-1.025154474389505e-05 7.76714547274043e-05 -0.0003585779321587246 -0.000437706542419738 6.96807311067314e-05 0.0007639646053415337 7.149193200904287e-05 3.873045922709682e-05 3.956716885289155e-05 -3.473282529229959e-05 
0.000135190516457267 -0.0001116654235427583 0.0001682266915563279 -0.0003955065623067019 3.542630691199282e-05 -0.0002787766855745723 0.0001638794022819178 -2.180604051297196e-07 7.260606191509801e-05 -0.0001280774877963715 
9.994082846534744e-05 -3.027228663717544e-05 0.0001794431871925636 -2.604778249381621e-05 -0.0002504204236030689 -0.0002627232280115401 3.74226318522996e-05 4.182542363999483e-05 6.959215607067001e-05 5.771244827611069e-05 
9.73333208939933e-05 0.0003397005197762827 -0.0001383788585336101 6.183266966976415e-05 9.8181870195392e-06 -0.0003897894551239245 9.4923605105223e-07 4.25071834723542e-05 -0.0002295718725312396 3.07223638684855e-05 
-3.879542172339333e-05 -0.0002647475181757287 -0.0001148052536921047 0.0004824159774148903 -0.0002279577521361636 2.461393149370989e-05 -4.925562620268993e-06 5.019751925743845e-05 -0.0001179937494589777 0.0002000707091443907 
6.133695461232991e-05 -0.0004018647603409883 -0.0001682171389091857 0.0001936473261199775 -8.12383320044381e-05 6.213032198185902e-05 -2.222658389170556e-05 1.915283893698632e-05 3.739998547937233e-05 -0.0002315749975670241 
-1.229266798334595e-05 -3.180929161632871e-05 -0.0001730925428280437 0.0002431892235957837 -0.0002836460964492862 4.058799795296184e-06 9.771260174675266e-06 -1.735552237927564e-05 -0.0001586773662954653 5.623055858232453e-05 
-9.824159935493088e-05 -7.88319004129772e-05 -0.0002558200862257309 -5.00517085254827e-05 -1.008382916564416e-05 0.0001770343407302852 3.994568333650633e-05 -4.537787511922704e-05 4.155951286377387e-05 0.000157646200179329 
0.0001212028197616222 0.0003282332949041103 4.703233889468293e-05 -0.0001928891942111048 -5.104137702850861e-05 4.633168208192607e-05 1.358076523076674e-05 -9.342692590089654e-05 0.0001142751809064814 -5.121416847962709e-05 
0.000143457513249217 -0.0002331452688289252 -0.0002519719060165122 0.0003648298852414823 -0.0002017690137377041 0.000224546866166591 4.777449989235805e-05 2.378457938336154e-05 -0.0001226259142281785 0.0001064845097491236 
-8.562117514335385e-05 9.131498452626222e-05 6.753298123886455e-05 -0.0002237792922756803 -2.735949185623921e-05 0.0006003419457240315 -6.474896848383245e-05 -8.879546520900688e-06 -3.896111447392084e-05 -0.0001605474203390771 
0.0001307726403064448 -0.000232383065066858 -8.785140945247404e-05 -1.846985671937087e-05 -9.634334331226025e-05 0.0001869334838985535 -5.740862244244039e-05 4.629830714454725e-05 0.0002611671632241339 -0.0001119283305098143 
-8.628972197014812e-05 -0.000116238499631006 -8.230666588450567e-06 4.531554290342325e-06 -0.0004278224855457046 8.203041586417069e-05 -2.651730242730496e-05 0.0001661170154782665 7.916280847365414e-06 -0.0002269685399101907 
-9.957597939458923e-05 5.590073722325344e-08 7.890378739363526e-05 2.54679861555211e-05 -3.729905705487283e-05 -0.000394370713563611 -6.451463596534974e-05 8.47135966575865e-05 0.0001923929696298092 0.0001160799033736995 
-9.43769390307297e-05 -0.000199593531974116 -3.755189920778249e-05 0.0001314368670007966 0.0001896178939991951 6.368429037445332e-05 -9.655514835755061e-05 6.056792489977686e-05 0.0001279625244495766 0.0003390260259199513 
-0.000164764287984722 -0.0001891524584638491 -0.0002138698821865306 -7.68166198908898e-05 8.908703513267793e-05 0.0002989955513385989 -9.753622723194888e-06 3.610335547120888e-05 -9.44474248983518e-05 3.786818700180176e-05 
-7.624827568486905e-05 -0.0001876928200639653 -5.937837318901093e-05 -0.0003838109915859882 0.0004117275824509634 -9.508677529366597e-05 5.090078446703366e-05 -1.967261843874124e-05 2.994556652722077e-05 0.0002006679135287618 
-0.0001302489779971496 2.803762705854887e-05 2.150061424534131e-05 -0.0003295762411077231 -0.0001407735669138898 0.0003313229965525439 6.189163810880597e-05 9.249833181053146e-05 3.435308947701616e-05 0.0002522239182774492 
-9.499553875227766e-05 -0.0001852339645433451 0.0001227582425864761 -2.680273225277366e-05 -7.46156995361252e-05 0.0002157200200515262 7.155006769331724e-05 2.14474740807949e-05 0.0003395137277145887 -0.0001335804718682967 
0.0001055415529165588 0.000270659806779412 -2.544861216985126e-05 -3.070866203829417e-05 -0.0001829787138970183 -0.0004638195300785241 2.874083172517648e-05 2.349762545287378e-05 0.0001529156188974691 -0.0002273930702982878 
-5.616399664084303e-05 -2.921797691339658e-05 -0.0001421337299887302 -0.0001071520994201447 0.0002071350905566381 -0.000481707036978574 1.564262759222242e-05 4.245891197606108e-05 -8.422930479929905e-05 3.961801695852608e-05 
4.446118333012228e-05 -9.237629197568603e-05 -0.000227805319704155 1.712533449387987e-05 -0.0002540046836818932 -0.0001226750666632326 -2.333651620288509e-05 -4.145858568418504e-05 0.0003265350017765108 0.0001873119417181142 
7.868139325464904e-06 7.372098605649201e-05 -3.028415150288739e-05 -2.748201687451875e-07 0.0002303110369919094 -6.074182832589285e-05 2.578123258119826e-05 -7.272466087457149e-05 5.328202458334798e-05 7.642966078488656e-05 
-0.0001339925023833216 0.0002132692762871582 6.576049535808141e-06 0.000116028625064741 0.0002268470039392986 -0.0002012773658321663 3.925278224220821e-05 -6.908286998109475e-05 -0.0001300221716762321 -0.0001595148864272474 
-7.239712845189264e-05 -0.0001378106614483031 -0.0002840386816181516 -0.0001869897993774855 -0.0001474115512832706 0.0006336027668728813 6.410395788230438e-05 -5.378947956756196e-05 0.0001115789347844071 5.819638519395711e-05 
-1.727381326256447e-05 -1.679369514987614e-05 6.665716716992185e-05 -0.0001502977536092565 0.000124070498913004 0.0006046794869299808 4.502002501188517e-05 1.675098018904473e-05 -0.0003500469136353426 -6.606881469017867e-05 
-8.480573066818461e-06 -0.0001950073406521141 0.0002440927720995167 5.901451830409702e-05 -8.372233886636217e-05 -0.0001176945953939611 6.225927741481154e-05 -7.281642212165227e-06 6.754343168057726e-05 -6.963891786042457e-05 
-1.832563370770227e-05 9.099291568621388e-05 0.0002051380297354057 -0.0003897791945472916 -7.143040906154158e-05 -0.0001882020892431714 1.88676768737459e-05 -1.002274098764856e-05 0.0002329762964355307 0.0001367263699715416 
-7.867081103657993e-05 -0.0001242062894213149 1.541793260634822e-05 4.60057520790121e-05 0.0002086646942258043 -0.0001470168879562282 -7.865653190934283e-05 -4.242352510263272e-05 0.0003109471970213726 0.0002202776100249582 
-0.000199758378754118 -0.0003041732051925169 0.0001650092854888926 0.0001414373442748636 -0.0002201132076568664 0.0001415192892703944 5.241468803220927e-05 -5.684334152910113e-05 -4.816625994749474e-05 0.0003577166383238381 
-4.274357276077372e-06 0.0001567346698859308 3.306552592400782e-05 -0.0001722673133558473 -8.710278945028845e-06 -0.0001006928394116434 -0.0001259807186955267 7.519471847507314e-05 -2.592090760716482e-05 -0.0001343625759248778 
5.966264789061871e-05 3.749761587752688e-05 -0.0001731005229769549 9.139749288861234e-05 -0.0001016495975001807 5.874831947219498e-05 7.494637766535305e-06 6.615233206479049e-05 -0.0001170096573440901 -0.0002482301899360041 
6.853634381054573e-05 8.87755167001161e-05 -0.0002077811784220977 5.029941974984216e-05 8.016961710128995e-05 -6.738348757541841e-05 0.0001592429752118031 7.250682960926816e-05 -0.0004660670115106069 -0.000102793354486812 
-4.041981978351547e-05 0.0002677705614440613 -0.0001052706899170554 -0.0001622887903697665 1.409900755277123e-05 -0.0002237143893251342 0.0002591705630823201 -8.618847879422125e-05 7.277868986871307e-05 1.239891102338114e-05 
1.319889909402332e-05 -0.0001798063684474871 -0.0001120448802854614 -0.000213415996733788 0.0002011709307708224 4.383154043461119e-05 0.0001357382990657321 4.082623953059196e-05 0.0002125982881985739 -3.408569721672071e-05 
0.0002489373847336193 -9.864532673069812e-05 -0.0002422775316172872 7.738133537806204e-05 0.0002429629723561769 0.000398221056011827 4.426540917189704e-05 -4.641974270578795e-06 -0.0002669615055280828 -0.0001729660030490949 
7.161228506676032e-05 -9.876463461272835e-05 0.0001534983395381289 -9.424348004897473e-05 -0.0002281008707334131 -0.0002096063518454154 2.044819355729661e-05 -6.132453142498176e-07 0.0002714181093094028 -9.323251115769183e-05 
-4.649785145606138e-05 -6.707377377912895e-05 -0.0003374127692459215 0.000116139067301989 0.0001249915478215407 0.0003159064950351553 -1.216856555829321e-05 3.799726256608223e-05 -0.0002102623420122726 -0.0001851085835941478 
0.0001573623677839857 -2.682655765038342e-05 -0.0003061016382773433 -9.358187427428618e-05 -0.0001554167159437799 -2.978866562478929e-05 9.33757993406244e-05 6.535224698726704e-06 -0.0001614489404141398 0.0001564683994306384 
-0.0001548873440677697 -9.346239076220715e-05 5.693823646357597e-05 -0.000163600914787176 6.720208850908239e-05 0.0001820728066086546 1.847119724350601e-05 1.332886436070872e-05 0.0001323931772114721 -5.704651231883993e-05 
2.311010753999786e-05 0.0001972059011672386 -0.0003187762919180613 -0.0002185788111372693 0.0001140275473751305 -0.0002425969430527563 5.121792239200235e-05 9.615451315104928e-05 5.491908060621785e-05 -0.000140557601904702 
-3.165410996567994e-07 -0.0004375942760434789 -3.08302235917207e-05 7.657827219341993e-05 0.0001161033121277535 0.0002578079731402502 -4.188139451134207e-05 6.40992231638098e-05 0.0002322431583606085 0.0002560741444545205 
-0.0001939060986059205 -0.0001887471400070799 0.0005504904709710891 -1.374265057892636e-05 -0.0001760155143021871 0.00041063580253436 -7.910519910039872e-05 4.500976633675218e-05 -0.0001612742744092126 0.0004554458595675783 
0.0001940272036091906 -0.00051084595247042 -0.0001750317852364659 0.0002897786716016035 0.0002343901437577889 -0.0001631233163356248 -1.562834869785378e-05 1.926535035810395e-05 -0.0001367690654067781 0.0001039373614223202 
-2.739615933200747e-05 7.776567600154314e-05 0.000254288290546487 -2.58787493294696e-05 -8.804351011233669e-05 6.573453841943246e-05 -0.0001024856992482303 8.924916750808287e-05 6.146409995647067e-05 -0.0004416679414271638 
0.0001853455091678623 -4.950180613020875e-05 1.852099664289022e-05 -0.000433925152286366 -5.349780193925963e-05 8.946167250689634e-05 -0.0001078224855138064 0.000165079248445113 -3.358890417028676e-05 -8.222052312672908e-05 
0.0002121700314121981 0.0002784743053994 -0.0001369647166260718 -0.0004810766920638168 4.899754044176695e-05 0.0001289329070644121 -7.074525193741531e-05 7.644910034594669e-05 4.358899615239661e-05 -4.397336925176112e-05 
-8.180724118549232e-06 0.0004230831283458479 -0.0001570148626389741 -0.000556565725347256 6.778300545969572e-05 3.774573693128205e-05 -0.0001030803148797163 0.000110315938292725 -4.956648535916985e-05 5.542663579151585e-05 
-8.921683972339436e-05 7.753203710907604e-05 0.0002799351246441402 -0.0001228647434529486 7.635065846157796e-05 -0.0001664010206476774 -1.744684602233754e-05 2.557955604274495e-05 -9.913294684982267e-06 5.114263003827741e-05 
-0.0002302858749485681 -1.59789450330545e-05 -0.0002478030140926279 -0.0001651471002119619 0.0003474004858117345 0.0003020166165368798 1.627145130223783e-06 -3.856576011265441e-07 3.357559083005405e-05 0.0001303154317372601 
-9.527352095928964e-05 -3.469020860530635e-05 0.0002029803916200965 -8.992504075032472e-05 0.0001290156903918005 0.0001156179463847338 -7.920325935153603e-06 8.278925773307668e-06 0.0001371918125388369 -0.0001123525100986545 
1.562602062690285e-05 0.0001008224316605817 0.0001524563544347317 -0.0002107432521814549 -0.0002384198676742248 6.032515099431317e-06 2.095512836419513e-05 2.628892486326799e-05 0.0001473603263652687 -3.58020530031407e-05 
0.0001159791273075093 6.128766633967902e-05 -0.0001084838789505866 -0.0003338435574006004 -7.371827099971154e-05 3.154606262201352e-05 -1.123095148647261e-05 8.859717566935828e-05 0.000205374576880254 -7.250728712669686e-05 
8.263898226488693e-05 0.000204186259403383 -8.804015129270665e-05 -0.0004949448397100358 3.704524652508526e-05 0.0001594208911480833 3.802928874116872e-05 -3.405068138012594e-06 6.359580514730511e-05 -0.0002838052624724213 
0.0001798708749341295 1.762443895554529e-06 6.155335865523279e-05 -0.0005912795543962193 0.0001988073137782096 0.0001820992179993476 -4.585885109137775e-07 -7.6179136461388e-05 1.124119908690253e-05 -0.0001703123966365125 
-1.820460337961956e-05 0.0002851372267754428 -0.0001996319443135801 -0.0002188172697965993 3.273263272339317e-05 6.13838457409992e-05 -1.784927913717767e-05 2.964191487027059e-07 0.0001015659734860257 -7.562677318343259e-05 
0.000154824362001039 -6.466157317395945e-05 -0.0002237160976978009 -0.0001893454798652109 -0.0001691404899891081 0.0002447641137541615 5.046837554202612e-05 -6.311687592471581e-05 -4.971193409533806e-05 0.0002105546772756877 
-0.0001618013162878322 7.67812278346622e-05 2.369719063450771e-05 -0.0003351183739309024 9.043111587378441e-06 0.0001458872925449059 4.540207076348188e-05 7.565640925806751e-05 -7.197386434253115e-05 7.66606236654352e-05 
0.0001482400750925349 -0.000174149088987914 -8.624544064942865e-05 0.0003874698023014901 0.0001350844282922427 -0.000143124398915358 -3.465232391710007e-05 -6.522142156501e-05 0.0002037712068968677 -2.970245156538278e-05 
0.0001909338481766666 -0.0002021009669533517 0.0001399803707852782 -0.0002375870878378672 0.0002229966115958901 -5.777912942438311e-05 -6.963082755013331e-05 3.916201575399456e-08 0.0001416087682538213 -0.0001634300438033222 
0.0001336047102801074 0.0002531710497000274 0.0002045306201599337 -0.0001594997763876105 -2.120158297124335e-05 -0.0001579023237173817 -8.326763193755314e-05 5.768182372753425e-05 1.468072088400338e-05 -1.568806480060584e-05 
-4.103292027279623e-06 -0.000121300381587835 0.000231812813566412 0.0001644235627675159 0.0001251232499628334 0.000329813386320382 -2.194853883487085e-05 -8.791453136912112e-05 8.548994636204681e-05 0.0001033140505498596 
-1.424082372098077e-05 -0.0001271068329370069 -4.31936016016173e-05 0.0002212613053848105 -0.0002610234095225649 -0.0001244103280642197 -2.934792196294906e-05 3.122286695977867e-05 -3.725406527337783e-05 0.0001133418061326765 
-5.539881205511928e-05 -2.280479444570058e-05 -0.0001698197657074023 0.0002558923657767372 -5.116868406538082e-05 -0.0003079593004177599 -5.574678669580884e-05 4.651655938072762e-05 -2.262426080373386e-05 0.000224255971085015 
3.653701193291028e-05 0.0002434080513164811 1.135815714598614e-05 0.0004972773270224834 0.0001154624913575891 0.0001079217778496862 -1.684529459897472e-05 -3.522885505512528e-05 -0.0002753635299491177 -0.0001440987353524098 
5.516622145885824e-05 -0.0001817709230947878 0.0001392636310593491 -0.0001823183359533476 -0.0001651778234909528 0.0001305880854063466 0.0001081902742229013 -7.930491580321165e-05 0.0001032992577538569 0.0001076908717585379 
-0.0001079845790895716 0.0002190631455098956 -0.0003312971843133756 5.81350433301498e-05 0.0002144604373092491 -0.0003068088901387932 0.0001471868628903468 5.907813218821367e-05 0.0003133244190867415 -0.0002080976857203525 
0.0002170598857280433 0.0001390629959147491 -0.0003646141148832183 0.0002952930149381137 -0.0002303078845653829 -0.000227065593544705 7.963683929063804e-05 -1.805974948757978e-05 -5.772615046615093e-05 -2.038796280545607e-05 
0.0001628890163346512 -0.0001809565853268788 3.133502825429017e-05 0.0003653348084289424 -8.253998612225906e-05 -0.0004288860427953748 4.984481785859495e-05 -3.03639549078107e-05 -8.184416752420783e-05 -8.949505010969337e-05 
-5.555993183740768e-05 -0.0001813051966249415 0.0001598506432168017 -0.000109371554921949 5.489398416316649e-05 0.0001525100828172608 -3.051671800069528e-05 8.436289117654524e-05 -0.0002551107309476534 1.496397997567372e-05 
0.0001707587220138748 -0.0003055210617462761 0.0001032227953083387 -0.0002724978947618792 3.05227174557398e-05 -0.0001922763125588116 0.0001414421873254992 -4.213543702188046e-05 6.826142567445584e-05 0.0001009810139070701 
-8.859233738355332e-07 0.0004000527435553029 0.0003003987677042638 -0.0001896768457085988 3.43234481749301e-06 -0.0002759050541635493 4.631532586098149e-05 -2.774451089269825e-05 -0.0001895903608812966 -0.0001326798294770064 
-7.864321723995129e-05 0.0002566741460937315 0.0002206158899900081 0.0003760658621884573 5.812250327234021e-06 -0.0002489770989310839 -7.908212570669566e-05 2.201045450924677e-05 -5.337059712817117e-06 -0.0001728993548448604 
-0.0001641727301151402 1.017841464423597e-05 6.858970107156621e-05 1.642905859615555e-05 0.000246652187693123 -0.0001180802094248297 1.556077687588712e-05 5.919040297769238e-05 0.0001035881586810874 9.798714535354064e-05 
-2.051303945822081e-05 -3.872116125384894e-05 1.817313241122467e-05 9.721971833808616e-05 -0.0001726655949314658 9.701556099738367e-05 -5.71370614060196e-05 9.519440545717869e-05 -1.217315806661941e-05 -0.0001051381184531399 
-4.572549142905583e-05 -0.0003178339615754994 8.571537316055451e-05 -0.0001403182334498891 -7.61662815309374e-05 0.0004194393495289084 -6.46773070328646e-05 7.902702999064247e-05 -0.0001192135390683615 2.839521319895077e-05 
4.427804287767867e-05 -5.46298484883249e-05 0.0001662003529261924 -0.0003115534327442834 0.0001150506717572729 1.905026846105553e-05 -7.601447706478376e-05 1.100531620667557e-05 -2.706910884794912e-05 -0.0001302314974728465 
0.0002076648008759247 0.0001228278481851203 0.000171924115337495 -0.0003292066255600354 -0.0001225054943493173 0.0002120791258495975 -4.873877493111439e-05 -5.231561839312585e-07 0.000122754057200809 -4.36915208958432e-05 
-3.861094246255415e-05 0.0004119979023108298 -6.79208117223134e-05 -2.2610434207248e-05 1.14952338024543e-05 -6.575847876714605e-05 -0.0001042509565766459 1.179797184693477e-05 0.0003385702160975727 -0.0001578816949403302 
3.091430946751544e-05 0.0002166375647082574 -0.0003590198536980883 -0.0002434758561628467 -7.915741735985128e-05 0.0001134458312579984 -8.413962165769319e-05 -2.459801446575327e-05 0.0001134699898112134 8.507878132898136e-05 
2.006419020517581e-05 0.0004235602640694955 -5.641011618130219e-05 -0.0003659932491158593 0.0001247885184878191 0.0001543880749064519 0.0001220161199102753 -4.92698833758759e-06 -0.0002442213352420708 -0.0001841407297275746 
7.795665511186391e-05 0.0001006751603057277 -0.000254807976400397 -0.0002726516240373806 0.0003245542223607032 -4.306193834496263e-05 6.059261919690121e-05 -7.549544788368752e-05 -4.924679496043489e-05 -1.391643553197169e-05 
0.0001974009270696302 0.0002141403786614274 -0.0002444599258990811 5.416374597403271e-05 9.075830068285644e-05 0.0001228675293650139 -4.696451839359068e-05 -3.831193616497531e-06 -8.72122625697369e-05 -9.308393906567964e-05 
-7.34380276587299e-05 -0.000369308114866386 0.0002463771995902305 0.0001144981503229526 -0.0001976567678835013 0.0005191937858015832 -8.329822443686224e-05 4.314336948675694e-05 -0.0001104322889272222 7.610556571165394e-05 
0.0001892511694649715 2.439774179875271e-05 8.630700193747477e-05 -0.000467495147787608 -0.0001876244025326855 0.0005691186383053055 -8.808499669516014e-05 1.882185126726398e-05 7.78194917982823e-05 -0.0001544651079225537 
2.216877983949032e-05 0.000136211363747504 -0.0001048744692777667 -8.328875458437892e-05 9.435874933814461e-05 0.0004950910439739821 -6.045437026515187e-06 -3.544129264320878e-05 -0.0001387089966403455 -0.0003572031265769186 
0.0001585417232850535 -0.0003218194649968001 5.172559645413602e-05 0.0002936981954594611 5.526031206658746e-05 3.709089012182024e-05 -8.487416928138976e-05 -5.529006928285628e-05 -0.00013360652133816 7.024199145514328e-05 
7.078971117069936e-05 0.0001405883295282377 -6.547891506247109e-06 -8.383824317213367e-05 -0.0004469984432672008 0.00019018991673767 -1.71577005352266e-07 6.183087463213428e-05 8.957916164525146e-05 -5.473880607201616e-05 
-3.657966573838912e-05 5.291672573243134e-05 -0.0001597234170449209 -0.0002079400159536894 -2.268698616684772e-06 0.0001362198065819945 0.0001215226512259402 -3.654174013611053e-05 0.0002256866195426384 -4.912414572018102e-05 
-0.0001233499238937144 0.0001909749352799647 -0.0001545781709020554 -0.000282059530744674 -2.65077201155214e-05 0.0005368428051920346 4.790198705906053e-05 0.0001010622029208329 -0.0001655951585451212 -0.0004381238925893876 
0.0001298996559144128 0.0002639917194858725 -5.462099698323467e-05 -0.0001176932600474022 -0.0002806158266771252 0.0003235198465920823 0.0001172902395242896 -1.448473886708881e-05 -8.943989492039098e-05 -0.0004418556531419103 
6.77186321681976e-05 0.0001099229800253484 -9.657083702172054e-05 4.835651822431049e-05 2.04387264496663e-05 0.0001412481459826531 -0.0001561499607687939 -0.0001198280712465375 9.407629744499786e-05 0.0002038229335688938 
3.726687153481226e-05 0.0002942408228411061 -0.0003910018352526222 0.0002675296418074701 -0.0002458435064744722 -4.770594170196082e-05 -5.21043710158044e-05 5.712730156658209e-06 -1.073987206245128e-05 0.0001808789206783269 
6.288769633145335e-05 -9.418128772016541e-05 0.0002710051146298473 -5.386060266130305e-05 1.546545760497447e-05 -5.546065360859357e-05 -3.847721755716198e-05 -8.247407016721875e-06 -5.243973287179471e-05 7.154961564612405e-05 
4.973877410960627e-05 -0.0001178715541457321 -0.0001861563582322386 0.0005037787203551325 -0.0001903325890021315 -5.567410110797336e-05 2.461297962457812e-05 3.315272773864834e-05 -0.0001282827545481325 -0.0001749666727508264 
-8.549980923806896e-05 9.62150586003294e-05 0.0001234677348873502 0.0002133113433420791 -0.0002785702800411979 -0.0001614803606702909 7.163289141777038e-05 -5.783010024137068e-05 2.776925098821539e-05 0.0001877392429468081 
1.153402922307385e-05 0.0003736952192801156 3.884732586628655e-05 0.0003789739462396804 -3.270529777193173e-06 7.936656031833185e-05 9.867008489910263e-05 -0.0001000166506493057 -9.816034433207997e-05 -0.0001771506974468308 
2.730363993419314e-06 -0.0001886180853795024 5.928365574610505e-05 -6.636953954348533e-05 -8.082409955871656e-05 8.739800567750967e-05 0.0002606171078348567 1.303824972467583e-05 -0.0001485752946640687 -0.0001607115698195869 
-0.0003008561394173912 0.0002594626436917154 0.0002691993011464461 -0.0001687799172341915 6.215889138367367e-05 0.000185513819913044 0.0001469445137979202 6.135068113891456e-05 1.926581171788451e-05 -0.0003183452164678223 
-8.936057354054611e-05 -7.995546353357458e-05 -1.986996632342359e-05 0.0004019434842874775 -7.773033753147627e-05 -0.0002126629845847807 -2.630977675886765e-05 -4.828609374678495e-05 -0.0001456603758005116 0.0002605974348809934 
9.534098369265998e-05 -0.0004593616386822769 6.255214254873447e-05 0.0001691456575963514 3.265818511961412e-05 -2.489170022794882e-05 -1.465578586179543e-05 -2.849083027085695e-05 -8.508910517750646e-06 0.0003020656398658099 
5.086284739966719e-05 6.227750594267832e-05 -0.0001211604673666481 -9.323296179146436e-05 -0.0001437252447409614 5.733886994938693e-05 -0.0001310341349560453 -6.771044539934018e-06 0.000276351631816636 0.0001736821726561061 
-9.262901186845736e-07 -6.814364481586919e-05 5.549295418125759e-05 0.0001866200723725074 9.361893558694601e-05 0.0004866148349698039 -0.0001891477831079967 -5.699903643172026e-06 0.0001087082181463958 -0.0001113479240058877 
-3.295073578059863e-05 0.0004289531113923211 0.0001264576401712822 -0.0003104790910076526 -0.0001181692597385355 6.624463179800041e-06 -8.057564768746801e-05 3.199792082980794e-05 0.000123793096600833 0.000202348409465308 
-6.506417805413989e-05 0.0001720166989475203 0.0001552775972416021 -0.0002741124492878923 -7.140180643051657e-05 -0.0003743750253226735 -0.0001213994358147843 3.79164402231077e-05 3.664264190462079e-05 0.0004265559504144455 
-0.0001255882815929042 9.302504269535673e-05 0.0002263767532380035 1.41723630357033e-05 -0.000100681385417256 5.216720965427481e-05 2.855911248103526e-05 2.738182650376595e-05 -7.244561228735091e-05 8.833392035198508e-05 
-0.000104106707499174 0.0002345623257373223 -0.0002257685723223941 2.564815319080137e-05 0.0002587687022046714 -1.314042459472415e-06 -5.246228744627962e-05 -6.450806230801778e-06 -5.457920932709078e-05 -0.0002398769101910068 
-0.0002224162735340437 -0.0002028107471157358 6.343847503276344e-05 -0.0002979387392844628 -0.000144281646773885 0.000418875453770579 -5.651892170794432e-05 5.991309008637368e-05 0.0001672312917430663 2.386462124519891e-05 
1.248950458023358e-05 -0.0001225147666598232 0.0001176545464560219 5.322509466636486e-05 -0.0001396754208217214 0.0003550494868166941 -0.0001153553519412499 5.395125289478613e-05 -1.529208674607038e-05 -0.0003077054361755144 
0.0001871818858045108 -0.0001095940981508648 1.852075212983394e-05 -0.0003737787039196362 -8.707662783847465e-05 -8.190404352125604e-05 -0.0001023117854146959 -7.716661091481663e-05 0.0003774983321978215 0.0004015761351076687 
3.142403599523062e-05 -0.0002136881665956369 -4.804863217138636e-05 0.0001810416875331934 -7.526607721292474e-05 -0.0002531440767854841 -1.730089459784777e-05 -3.014669633133734e-05 0.0002469632136106904 0.0001493998358092289 
6.165922941028013e-05 -3.65281382411519e-05 0.0001274284115837802 0.0002083289782156511 -0.0002939537015919499 0.0001816466798943343 1.499206818966987e-05 -3.065156445311211e-06 -0.0003633912707340093 -0.0002436044799309677 
-2.384178834023031e-05 -6.28371999794449e-05 -0.0001676191502166316 -0.0003031941953840678 0.0002202269830891056 0.0003046254669094208 6.365616588155419e-05 -3.111181973637059e-05 0.0002935425578528473 -0.0002850340209173988 
-0.0001425610678044906 -6.772764842340993e-05 -0.0002312341384174421 0.0002185143527172343 0.0001134382389722159 0.0002641366969211625 -0.0001181604465621951 7.060307141742079e-06 -0.000144859622206944 0.000197498629616817 
0.0001569687265232645 -0.0002878127054547698 -9.773069461827948e-05 -0.0002126187468284639 -5.174596315211745e-05 0.0002185673477053486 2.0911921631003e-05 4.93948510488826e-05 -3.684389472292573e-05 8.000350081023151e-05 
6.028119303769701e-05 -0.0001471851868565329 -1.048544315742721e-05 -0.0003070773296199641 0.0005026166940363968 0.0004852897389409494 -0.0001840215968063782 4.925143745253292e-05 -6.621611034008478e-05 3.117122976353161e-05 
-1.448314821926227e-05 -5.014711639639304e-05 -0.0002587196213838985 -0.0001089681147360059 0.0002358227973219991 0.0001745065263247073 -4.652680046508701e-05 5.17084821571466e-05 0.0002108728638283281 -0.0002792972714874857 
-7.070660178332322e-05 -3.33990157606614e-05 -0.0002108824383501478 0.0001114582134951793 -0.0001106938732473864 0.0001236354679057513 8.999654116500599e-06 -4.594419143358966e-06 1.177063655083356e-05 9.826793122176249e-05 
5.533198443864319e-05 -0.0005463859986667587 0.0001944186335781133 0.0002456419100522312 0.0001746776216031038 -0.0002518154367236616 8.711543064823087e-05 -4.295803205276615e-05 0.0001033003325641164 6.369306895739816e-05 
0.0001768396970902487 0.0001038425004731475 3.951577275747003e-05 0.0003169767909266384 -7.856483523440882e-05 -5.241980309809062e-07 -4.904954004685072e-05 -7.730729670011723e-05 5.307486517009362e-05 -4.156665315344675e-05 
7.315945570269398e-06 0.0004983013875021587 -3.781014058276085e-05 -0.0001958406919074898 -6.56254591973741e-05 -0.000123398949489196 -1.540835473384419e-06 -2.56104447851588e-05 0.0003607599287370058 -0.0001395412811208882 
-1.827383409973854e-05 -0.0001556909058914091 8.577553810218774e-05 0.0002128792837428971 0.0001119821734632514 1.533753159363325e-05 -6.407741729984304e-05 1.67288541231264e-05 -8.996677749581206e-05 -0.0001120272288856689 
-0.0001071807149092091 0.0001475589898030115 -0.000154623920778871 6.812661006256151e-05 0.0001556144465803425 0.0003210629229072856 2.243443360107422e-05 5.358593387482593e-05 -0.0001654436660259431 -0.000408188972263729 
1.40653112300513e-05 0.0001728815811584958 7.940486187258864e-05 8.656129813206637e-05 -0.0001935069506450934 -0.0003557143263609082 -0.0001587897402019721 7.458638642079022e-05 9.475346281678704e-05 7.855837812322025e-05 
-6.838677893759714e-06 -0.0001093633240016985 0.0002697718347468426 0.0002246612201825043 -0.0001022798637995999 -0.0004538535411693107 -3.061699370195704e-05 2.138985904970587e-05 2.496854608387105e-05 0.0003381009533979093 
0.0001304610859979933 -0.0004512556708446128 3.961085263239552e-05 0.0002157124915715458 -8.937087252641247e-05 -1.130080827619715e-05 -0.0001159988989665604 -5.647206836775942e-05 0.0002076366522085422 0.0001463398938174586 
0.0001131897649054176 0.0001845643849168959 -0.0001296222507086563 0.0003043122304186858 -0.0001689873924010601 -0.0002579962612202793 -9.552799597840466e-05 1.494722471712209e-05 -0.0001316685613831 6.981448287851058e-07 
-3.135339804280474e-06 -1.206673145516235e-05 1.998604137280321e-05 3.497289167033191e-05 0.0002087029530198539 -0.0002162130712935724 1.222654667734375e-05 -8.557313862491115e-05 -3.84412635156184e-05 6.400340228021645e-05 
5.78627310692274e-05 -8.363726455801415e-05 6.642665366324692e-06 -4.595010153210784e-05 0.0002804474769834579 -0.0002134719781269085 0.000118514012337333 -0.0001287176434218702 0.0001157011708742962 -2.973645021190001e-05 
8.169179891930551e-05 -0.0006247274236303127 -3.334624971377532e-05 -7.703088323581123e-05 0.0001108838249736095 9.481353341078489e-06 0.0001404074778546722 4.758499074314477e-05 -5.637560979452754e-05 3.087647416231612e-05 
-0.0001099188077326965 0.0002084667808116519 0.0003642492353793107 2.344258117595233e-05 5.972026778795446e-05 -0.0003700696587415036 0.000156876311929553 1.586148812840631e-05 -0.0001587305624162918 -0.0002124580755831558 
-0.0002627930207929795 -0.0001496461105632632 0.0001949957746481754 0.0009064585498575644 0.0001345648951763467 -0.0001144683928094051 -6.688228425576694e-05 -2.519895842174572e-05 -0.0001548780472689873 0.0001918783665698463 
-9.299172049970969e-05 0.0002699520863715485 -9.459373649547105e-05 -3.656683841921889e-06 -8.882626313925383e-05 -0.0001198175698952262 -8.441188658596692e-05 6.383502332628563e-05 -4.486650395511812e-05 0.0004241989866190133 
6.074673677172952e-06 -4.912415113904347e-05 0.0001958555055354135 -0.0002330089019788366 -0.0001821512697680782 0.0001210110192655495 -0.0001490653610924951 -2.375862634348083e-05 0.0003102210830660762 0.0002331339339913228 
8.185319128820562e-06 -0.0002599601176914094 -9.689616614734457e-05 0.000323077984533858 0.0001250140998188005 0.0001404948895581965 -0.0001421784762187554 6.972831993579505e-05 0.0001031380950555354 -2.417408815935966e-06 
4.670715933630818e-05 1.58505305464588e-05 7.027830139507489e-06 0.0004163348090673673 -6.259861060020542e-05 -0.000247427941974574 1.901244719314849e-05 -1.628974445704257e-05 -0.0001689209000866438 -5.91907332933448e-05 
7.693909927431663e-06 0.0002905260082048835 -4.51023572378609e-05 -1.427867028416862e-05 6.995564961620861e-06 -0.0003958405859420739 5.491182640241677e-05 -4.799014682904509e-05 -0.0002859539207597376 0.0002368479006825998 
9.06005126848969e-05 -0.0003580767040517253 -0.0001246159630364492 -0.000223167199675356 -0.0001094365627981225 0.0001660129011503763 0.0002135237898398705 4.441187036291852e-06 0.0001107789447866352 7.148733934675419e-05 
-1.272040805379933e-05 -0.0001435325516527908 -6.305203881200437e-05 2.800199553547551e-05 2.191438438825804e-05 -0.0001753349325501348 9.069708748565784e-07 2.440133135174853e-05 0.0003402178895487195 1.469885716960114e-05 
4.38992972835358e-05 0.0002280069327612859 -0.0001742620692116154 -0.000123668580144346 -0.0001748339041401511 0.0002728651806230248 -4.305720774408597e-05 6.140188642254358e-05 0.0001274082775724255 -0.0002971424304594932 
-7.657933281420033e-05 0.0004956349368463466 0.0002753272526456001 -0.0003077216067938742 -0.0002213673115342013 0.0003597019953592713 3.945637331479079e-05 6.558430214504959e-05 -0.0002643853871828151 -0.0001511109751100171 
8.580199391481891e-05 -0.0001397076269501975 -1.918827775555725e-05 -0.0002303527522079085 -0.0001879195456960599 0.0001919364977950779 -1.901455144030013e-05 -3.690457424738359e-05 -8.570234664484427e-05 0.0002660032082401992 
5.175634866273037e-05 -0.0002356935777461775 -0.0003699864417122636 4.673246806028015e-05 0.0001772867627699392 5.306266770449379e-05 2.330494936252883e-05 3.065836947011932e-05 5.094582936290667e-05 5.879898007360336e-06 
1.902620433055027e-06 5.906844011227068e-05 -7.675206351145979e-05 2.523241293536114e-05 -9.229267824874364e-05 -0.0001596132940624272 0.0001316357440992179 6.142443647635751e-05 -8.879889670899036e-05 -6.771334111747103e-05 
9.524650531811293e-05 -0.0001214391940634735 -3.754913984865638e-05 -0.0003935573940748846 0.0001914322246396649 0.0003622033613645438 4.550620459960066e-05 -0.0001033585859394322 0.0002884065614979756 -0.000220462720812414 
-0.0002062804034039689 0.0002786768197378873 -6.414010075715032e-05 -0.0004350163043682019 -5.555355610479821e-05 -0.0001727257773933044 0.0001198772004199855 -7.695376007317006e-06 -7.462634804815105e-05 0.0002957933224434206 
5.380934694793348e-05 6.404474732712409e-05 -0.0001900215491832926 -0.0005985929646440931 0.0002988910108732798 -0.0002090472286899557 0.0001258236249310299 7.315763397603065e-05 -5.514175972187107e-05 -0.0002022440154218327 
8.275508461454079e-05 0.0001884434789295722 -8.689466272093217e-05 -0.0001507193578141929 0.0002299439722158822 -0.000110326652268627 -2.103146389808605e-05 8.459371403658968e-05 -5.64441768973576e-05 -0.0003534309709891154 
-7.349159498111847e-05 -0.0001257560096907825 -0.0004222297012246911 -0.0002439270319511001 0.000217153534514155 -8.68257074851006e-05 0.0001621531358945606 4.596131452146611e-05 0.0002048465423527196 -2.250983765802871e-05 
3.460326968400756e-05 -0.0001758868999255696 7.810816424287542e-05 -0.0001356029660449493 -5.021332197534275e-05 -0.0001833695210352987 -3.131490260063569e-05 1.633453951429259e-05 0.0001360249537453167 0.0002195441214648555 
5.978332634516254e-05 -0.0001258369664742384 0.0001566144393573827 -0.0002494033644983792 -0.0001135406426692787 -5.03845626609272e-05 0.0001002701081410903 3.590567451137663e-05 4.9473343032182e-05 -0.0002842401233656671 
0.0001239134715050681 -0.0001964373688499019 0.0001800443264430592 0.0003726318465828539 -0.0001277029811146303 0.0003187134681045616 0.0001482616842720553 -0.000114872055737688 -0.0001042237085772688 -0.0002614897566845257 
6.237664254251661e-06 -0.0001214112806247616 0.0001691825911876869 -0.0002061341741458806 -8.034497417049903e-05 0.0003213519269750839 -9.018397247652528e-05 3.950494801747583e-05 0.0002239670639708326 -5.576314566461804e-05 
-0.0001110872000378201 -0.0004203424671596543 7.56849774853772e-05 0.0001212093448540805 7.098674094559404e-05 0.0002730558944534052 -3.307470191298725e-05 -8.425998145778766e-06 7.646211100257451e-05 0.0002635707234101263 
-0.0002534155558811557 -6.771824869564304e-05 0.0002929185697077622 -6.404247994000047e-05 -5.156056006723081e-05 0.0001878683078090655 0.0001166835715092597 3.06710959032593e-05 -9.17573845988364e-05 -0.0001150791362205838 
-0.0002074503506713695 -0.0001270304967195177 -5.055255182889023e-05 0.0001790571200402007 6.880203627641564e-05 -0.0002238682651424863 4.362147860362989e-05 7.182367735736529e-05 -5.070830740205785e-05 -3.5406326315319e-06 
-8.736743254364429e-06 -0.0001599348951311406 -5.800502170683569e-05 -6.87623488662415e-06 -5.684725032564879e-05 -0.0003277415413624513 -1.142249386411771e-05 -7.376746505209763e-06 0.0002404922272025752 0.0005798496633313471 
-0.0001828110004943262 -0.0001790604871888099 3.231324984022556e-05 -0.000374238622924536 0.0001225749635644089 0.000301952925681032 -1.374054379758969e-05 -5.008150215267215e-05 0.0001345912570732743 0.000216461880009114 
7.143543297108041e-05 -0.0002094564616291936 -0.000104554191991639 7.451830229986673e-05 6.123092019377755e-05 -0.0001394392939783962 -1.975389831620579e-05 3.308042984488983e-05 -0.0001794621356374618 4.931706898768007e-05 
0.0001965702004162272 8.254340499210239e-05 -8.431672205743351e-05 0.0001089716276124188 -9.770281872089721e-05 -0.000126396545640727 2.820643925607992e-05 -1.620783267773897e-05 -6.78517762145976e-05 -0.0001559059060462493 
-2.698888422573106e-05 -0.0001357669468073717 -0.0002608165540465985 0.0002731533393888641 0.00019518291833167 0.0001443978356580041 -8.790174487940272e-05 -8.350784560426903e-05 -8.750429007459224e-05 0.0002083244253882107 
6.757796542323408e-05 -0.0002818192491961218 -4.109282521786356e-05 -7.794096049533941e-05 -9.101890563010418e-05 0.0002763210811349153 9.643003383356184e-05 9.772137335646987e-05 -0.0004455639547841176 -0.0001427719818188251 
0.0001165783038952599 0.000389473252833648 0.0001795445128100902 -0.0001456089208651607 -2.570436207260263e-05 -1.164036940548099e-05 8.735798627124544e-05 -5.313905055210215e-05 -0.000187678561448022 -0.0002780690749636644 
-5.905386329003532e-05 -0.0001882480322561254 2.953742270327751e-06 0.0006046395073687417 9.048727977145575e-05 -0.0001493499909605778 -4.687491403902437e-05 7.650459878226552e-06 -0.0001662337388901075 2.342385872830896e-05 
6.309291141042394e-05 0.0001978544330591327 -0.0002144294584850009 -0.0001538566464430276 -0.0002295088400912361 -6.445278198048348e-05 -4.991676724010238e-05 4.957251008500016e-05 0.0001101568277443527 7.291573120244655e-05 
0.0002013795992916933 -5.513748650879231e-05 -1.147336524316419e-05 -0.0001947164984600635 -0.0001357095295241634 -8.835690866073143e-05 -0.0002169933337011431 -7.915324042183606e-05 0.0002685391343573496 0.0004580402800006684 
-2.259061448650903e-06 5.910936495985092e-05 0.0001021328103223639 -0.0001630320834370319 7.078975353135754e-05 -0.0001538293327470276 -0.0001060229517105071 5.223845819530025e-05 -0.0002450605781948021 0.0003659846434437545 
-2.373111904810238e-05 -0.0001076497039793893 -0.0002430047541397833 0.0002653409310592771 -0.0001941497540298735 8.09027214296469e-05 5.154270544549606e-05 9.656094067094472e-06 8.991560930877311e-05 -0.0001361508935294048 
0.0001723724360607811 0.0001369080573226315 4.500194080704813e-05 0.0001201305818835587 6.154690390352524e-05 -0.0003095618898572925 -0.0001203001527734583 -0.0001136095050191908 2.039012281117171e-05 -2.72458804603157e-05 
0.0001085098304088882 -0.0001258247901631673 -3.30126677230351e-05 4.552216650071239e-05 0.0001892232287541762 -1.224699449032615e-05 -6.910529158851901e-05 4.463744499929085e-05 0.0001397482585295825 -0.000132682428189216 
0.000147859885252288 5.836962901883907e-05 -7.859791072970802e-05 4.27011844736673e-05 2.447186839041733e-05 -4.091769102728714e-05 2.511065385713983e-05 -2.167129694395569e-05 -3.375222059622958e-06 -2.530017620565952e-05 
3.808662703394582e-05 -0.0002279371329299573 0.0003053089824785574 0.0002566393563062619 -0.000208984874190451 0.0002087939838384752 -9.94886346622061e-06 5.178288115405319e-05 -0.0001924862356417707 0.0001016828831271118 
0.0001091717087027535 -0.0001137942739835815 0.0001628896214293804 -0.0001681200218123719 -0.0004603843599729641 0.0001524499463977023 6.180386759081166e-05 5.673250093782002e-05 -4.323365663046061e-05 0.0001233867331969806 
-1.174697109637236e-05 -0.0003177657926123641 3.621340727197502e-05 0.0004053865352300036 -0.0002719412781742289 0.0002710220206147778 -0.0001253576063303006 -4.380939467577414e-05 8.717867663482066e-06 0.0002432082962510588 
1.027065433580346e-05 -0.000143297252979739 0.0001740553324569558 4.115210190606607e-05 0.0002015368425722772 -0.0001137671553644648 -9.584248873967154e-05 -1.640546234399349e-05 9.372938520604582e-05 2.197284535806269e-05 
9.701980931413352e-05 2.652950753746848e-05 -0.000135226959461885 0.0002929356415027105 -0.0001893354276188926 0.0001783970009516085 -1.615542333491623e-05 7.231875130978599e-06 -4.736180856461658e-05 -0.0003722324088369042 
0.0001494958704508246 -0.0002396048130619653 -8.602553783133111e-05 0.0003496518988144576 4.339611646498859e-05 9.384114345644804e-05 -8.503256002780109e-05 -6.998606344248001e-05 1.483096994418952e-05 0.0001576741883655627 
-7.062906276593168e-05 -0.0003692371750803286 -6.62095389112192e-05 -5.842664742545554e-05 0.0002329067771724092 8.352970180149011e-05 0.0001514988979712826 4.273014375639087e-05 0.0001649924398436709 6.393402004902481e-05 
-0.0001433920969342018 0.0002319425374275184 -9.428715949766139e-05 -3.223632739466786e-05 0.0004015233824933873 0.0001081809361753273 -3.142448395474828e-05 2.061505595811679e-05 7.610068906713712e-05 -8.208829865633125e-05 
4.462497471175934e-05 0.0002324579310237936 3.17173830230936e-05 -0.0002588458717849347 3.902437368751545e-05 3.44985317527138e-05 -6.62496032102387e-05 5.912694695745976e-06 -4.737084488959798e-05 -0.0002054501100692703 
-4.576175656822917e-05 0.0002390722675665388 0.0001162825287150853 2.716505810337409e-05 2.500395562713761e-05 0.0001359241994709784 4.820127000654632e-05 -2.672028191252145e-05 -0.0001499094191544371 8.788138923830186e-05 
2.032425084406809e-06 -9.809801523784177e-05 8.882197780102839e-05 0.000280572859134623 -7.902948652680125e-05 0.0001828293559505229 4.382735229584605e-05 -0.0001059234834729741 0.0001853221226598823 -0.0003040802305925206 
3.076790328866558e-05 -7.631010886442791e-05 -9.843489261076769e-05 -0.0002873570017343187 -0.0003505883449218191 0.0003582553542685297 3.341223362999398e-05 -1.757404899774299e-05 0.0002832505264515935 0.0002418031921205919 
0.0002310545853281653 1.505094841024005e-05 -0.0001282775034413793 -0.0002647354259860831 -0.0002242449834863629 1.082755487883794e-05 -3.432880440395155e-05 -1.638941436478025e-05 -0.0001708964813597343 7.422412512205936e-05 
3.455465907438515e-05 0.0003068375138650642 -0.0001191270316610041 -7.754238522212535e-05 -0.0001774976209178158 0.0001131888086199992 -6.598382939744884e-05 -5.519951308005237e-05 -0.0001400142518808673 0.0002165755152493703 
-0.0001845414398312301 -4.173687971557505e-05 2.030669692298762e-05 0.000280151834773258 1.696005851897864e-05 0.0003250240156175047 -7.887946760564591e-05 8.418829084030032e-05 -5.4086342728719e-05 9.89260122817642e-05 
-8.81269342688923e-05 -0.0002377085190367142 -0.0002442446348711998 -0.0002058957237931318 0.0002165385337022687 0.0001121001364985628 -0.0001030056622875669 7.972109508505684e-05 -0.0001023267082293241 0.0004833663086548824 
-0.0001102424491803258 4.290939160026396e-05 -8.42267392177195e-05 0.000141458490850605 0.0001835701066448185 -0.0003417242282583894 1.669618570505587e-05 -9.09572249173262e-05 5.813041296359921e-05 -7.466203526681934e-05 
3.038950872920448e-05 0.0001871447858905227 -0.0002077196643759778 0.0002045279579616183 -0.0001546850989488781 -3.156835587927693e-05 -0.000189736379792887 -0.0001108946719727535 0.0001827284482445391 0.0006598360328290549 
-4.39902210982058e-05 8.794881691741366e-05 3.017377328500248e-05 -8.369719265870755e-05 -4.975748625316861e-05 -0.0001150686499629171 -0.0001066248306126425 -1.431702009450695e-05 -0.000127192289431037 0.0003408321997135436 
-0.0001245476591919485 5.578125711343029e-05 6.438976280471278e-05 0.0001092046670300002 -2.598070499098344e-05 0.0003132270937406273 -0.0001533304498826555 7.946242269176185e-07 -0.0001175721693176278 -1.259601200655909e-05 
-0.0001487730965574191 0.000603878887098289 -5.449578149756804e-05 -5.898038869896529e-05 -8.503460498417982e-05 7.233704440155194e-05 -7.023182616199373e-05 7.431265507668586e-05 -5.368311082933087e-06 -0.0002808090974055906 
-0.0002297477225945388 -0.0002026664240916808 -9.615122658976655e-06 0.0002854319411379084 0.0001339670581610113 -0.0001202057095071137 -5.783945078729898e-06 -1.031859849079366e-05 8.124433267033487e-05 -3.770021962662973e-05 
-6.432811214185401e-05 -0.0003786239446986524 -1.436262548895895e-05 0.0003281834904236846 -7.409369739632157e-05 0.0002847935556410102 0.0001464600556513183 2.414284726257562e-05 0.0003400013829792786 -0.0003763962738724413 
5.724969916331129e-05 -9.845509545601781e-05 -7.019710827361813e-05 -1.477503706358567e-05 0.000207044761709961 0.0001606700437248888 -3.201302536002568e-05 5.235070603657535e-05 0.0001714521414674034 -0.0006570677253708806 
-8.799522584517058e-05 -0.0001627097591745484 -9.6858442826429e-05 5.763162288318202e-05 0.0001690906935006077 9.758201964573505e-05 2.122562559974035e-05 3.983692119665293e-06 9.49598358263853e-05 -0.0002571535299452551 
-4.085431506159351e-05 -3.551230868592537e-05 3.681288492880013e-05 0.0002890647745674491 9.242223660756055e-05 4.757957239397847e-05 -1.013137962790658e-05 -3.447302999818965e-05 -0.000297702166243265 2.643295326001264e-05 
8.416427101332057e-05 0.0004301143333225886 -0.000129711313882486 -0.0004345167184399728 -0.0002960731747104442 4.528196834876421e-05 -0.0001614417052958478 4.754161946262173e-05 7.736062677781531e-05 9.708414313157647e-07 
3.739830694261076e-05 9.07130855079239e-05 0.0002958067557532206 -0.0001006846258467135 -0.0003385887046070907 -0.0002371492077158776 4.771539036059757e-05 8.638645062158266e-05 -0.0002037455625723925 4.948131049505203e-05 
-0.0001354471726429212 -3.713575960843287e-05 -0.000116747736778375 0.0001794171996408742 6.246512741918444e-05 0.0003031110755603936 6.914375756829229e-05 -3.918226942886711e-05 -5.537199113624846e-06 -1.512410574615494e-05 
2.202986606454751e-05 -7.89276112756267e-05 -3.152992945568213e-05 0.0001843053836703222 0.000452250175518501 9.644619542837936e-05 -8.172231340373309e-06 -4.900975399970181e-05 -4.727188862735854e-05 -0.0003536329257736647 
6.533251503262425e-05 -0.000268629502429871 -0.000132183894242293 0.0004751677713807904 5.636959719250841e-05 -0.0001024027641124356 -3.716492244264706e-05 4.8953573526972e-05 4.95916105197267e-05 -1.219634488205835e-06 
0.0001768570103949446 0.0002942099607286745 3.993747307933072e-05 7.823031316850864e-05 -0.0001496885016402462 -5.142563257362667e-05 0.0001069652068800957 1.365154138080548e-05 -0.0004584912169119674 -0.0002122894482607356 
0.0001463601493832678 -0.0003539830016799583 0.0002402808460626217 -0.000184600482370521 -0.0003955630154103406 -3.542071802380625e-07 0.0001104021033344243 2.151480542597713e-05 -0.0001480334217065184 0.0004620135546377047 
-0.0001106086019936166 0.0001064488728520085 0.0002031517962838919 -0.0001527497580317979 -0.0002979618525485689 0.0003451693417989253 0.0001265153210397638 -7.518108988488608e-06 0.0001298081763148678 -0.0003552347163642056 
-9.801977461795414e-05 -7.094535103582314e-05 -8.358233070891231e-05 0.0002770206342170023 -3.146338614731617e-05 0.000128280714116755 4.969018880526381e-05 -7.416791351144295e-05 2.649453937997498e-05 -0.0001966959901344816 
3.152440923030586e-05 0.0001795099396931858 -8.209588117269062e-05 -0.0003943437103194868 0.0003383478283674076 5.388956276552899e-05 -5.580844942354183e-06 8.976828699366822e-06 -0.0001980207929178802 -3.476224136929017e-05 
-3.494907999562188e-05 8.862219489203398e-05 -0.0001514881648311287 -0.0002305190165492885 5.391116043112411e-05 -1.609644531866673e-05 -5.633910053611035e-05 1.993900333082151e-05 0.0002522031334199679 -0.0001684440686551167 
-0.0001644228408205392 5.249580180955391e-05 0.0001800207985433848 -0.0002171775547201812 -2.733412130031234e-06 -0.0001861333903087113 0.0001896563669413379 -4.639185207740485e-06 0.0003196427541302028 -0.0002042752117417819 
-0.0003124082374828639 -0.0001108191588946845 0.0003151640837955962 -7.709593549558614e-05 0.000563779723091633 0.000142017851872974 0.0001358537777766697 -6.687454907723473e-05 -1.9930277723055e-05 -0.0002625312501375975 
-1.808109688514534e-06 0.0001144683856063242 0.0002607924005021924 7.572973738608263e-05 0.0002945902428626367 -0.0001869728392160889 -2.305829044534828e-05 -2.189729859125411e-05 -0.0001870299232056317 -0.0003212508036263001 
-0.0001029694506676866 0.000190226171686852 -0.0001013559158162838 0.000145933389638114 0.0001709403922240065 0.0002718593532515893 9.195086484855196e-05 2.547995604313541e-05 -0.0002345289764913416 -0.000339283726878893 
7.262279049053071e-05 -6.506234874824439e-05 0.0001487610077364599 1.673241295945981e-05 3.988497978393504e-05 -0.0002018448209075141 2.310596222170225e-05 4.854124012494471e-06 -9.848818777422947e-05 -8.505484262411004e-05 
1.229753065162516e-05 -0.0004185554163023908 -2.680217535197563e-05 0.0002406536828710121 -0.0002459267183864967 0.0002708714258912901 -5.323230258779736e-05 -7.28896175476668e-05 0.0004620909052101171 0.0001826225315626153 
-0.0001719696411260205 -3.334452870541575e-05 -6.25997672258255e-05 0.0001650411488566333 -1.625828774371669e-05 -0.0001852127699654847 3.713633291807426e-05 2.379479506489843e-05 -2.031050167131385e-05 -0.0001037080818161734 
9.686473676831225e-05 0.0004792673812519917 -0.0001316003660194566 -3.478895353229814e-05 -0.0002391694350088166 -2.166106868295967e-05 -8.646826301213707e-05 3.510007664411626e-05 -0.0001869688028684601 -0.0002848919070741134 
-4.304776706867562e-06 0.0002118549536840797 -8.197828170443373e-05 1.45820044959837e-05 -0.0001331755225280361 -5.509379220722486e-05 -4.004160945205816e-05 4.092707837830698e-05 -4.184688913172373e-05 4.005344142554771e-05 
-9.048667509349394e-06 -4.437029736803129e-06 -2.010661414969423e-05 3.32457137776692e-05 -1.456291070606481e-05 0.0001771919695234912 5.776946242296939e-05 1.672630998642711e-05 0.0001287753601485814 -0.0001335035752353426 
1.578169032587649e-05 0.0002467772217919505 -0.0002133340071435503 2.242996908262256e-05 9.540550060215572e-05 0.0001537798863154849 -0.0001139640682109274 -1.887464275484415e-05 4.707019513600896e-05 -0.0001598674837026493 
6.20319596228466e-06 0.0002376747638360492 -0.0002260810863930739 -9.455732041268671e-05 -5.321761885861984e-05 5.903823027873592e-05 -4.222822874752035e-05 -1.632890049061641e-05 5.659159761252322e-05 -0.0002128126080891236 
4.092292500172675e-05 -0.0001145028490037265 -0.0004420282785507455 0.0003338678102719208 -1.17576967636725e-05 7.647558803762966e-05 -0.0001104727132312595 -6.446828772727174e-05 -0.000107307465295263 0.0004679212093106659 
4.680398718146069e-05 -0.0005505793357724413 -0.0001491258259161715 0.0002061742640357076 7.867690261943333e-06 0.0001161273565798712 -4.637083382049909e-05 1.095444714948016e-05 -0.0001043537112949229 0.0004771229168324379 
